digraph Tree {
node [shape=box, style="filled", color="black", fontname="helvetica"] ;
edge [fontname="helvetica"] ;
0 [label="stage <= 3.5\ngini = 0.492\nsamples = 10769\nvalue = [6074, 4695]\nclass = 0", fillcolor="#f9e2d2"] ;
1 [label="gleason_grade <= 3.5\ngini = 0.499\nsamples = 6081\nvalue = [2932, 3149]\nclass = 1", fillcolor="#f1f8fd"] ;
0 -> 1 [labeldistance=2.5, labelangle=45, headlabel="True"] ;
2 [label="tumor_diagnosis <= 48.5\ngini = 0.491\nsamples = 4421\nvalue = [1911, 2510]\nclass = 1", fillcolor="#d0e8f9"] ;
1 -> 2 ;
3 [label="U05 <= 0.5\ngini = 0.479\nsamples = 2802\nvalue = [1116, 1686]\nclass = 1", fillcolor="#bcdef6"] ;
2 -> 3 ;
4 [label="S10 <= 0.5\ngini = 0.473\nsamples = 2531\nvalue = [969, 1562]\nclass = 1", fillcolor="#b4daf5"] ;
3 -> 4 ;
5 [label="gleason_grade <= 2.5\ngini = 0.468\nsamples = 2415\nvalue = [902, 1513]\nclass = 1", fillcolor="#afd7f5"] ;
4 -> 5 ;
6 [label="Obesity <= 0.5\ngini = 0.457\nsamples = 1832\nvalue = [647, 1185]\nclass = 1", fillcolor="#a5d3f3"] ;
5 -> 6 ;
7 [label="smoker <= 0.5\ngini = 0.452\nsamples = 1745\nvalue = [602, 1143]\nclass = 1", fillcolor="#a1d1f3"] ;
6 -> 7 ;
8 [label="age_group <= 2.5\ngini = 0.447\nsamples = 1649\nvalue = [557, 1092]\nclass = 1", fillcolor="#9ecff2"] ;
7 -> 8 ;
9 [label="previous_cancer <= -0.5\ngini = 0.482\nsamples = 222\nvalue = [90, 132]\nclass = 1", fillcolor="#c0e0f7"] ;
8 -> 9 ;
10 [label="tumor_diagnosis <= 24.5\ngini = 0.383\nsamples = 31\nvalue = [8, 23]\nclass = 1", fillcolor="#7ebfee"] ;
9 -> 10 ;
11 [label="tumor_diagnosis <= 20.0\ngini = 0.375\nsamples = 4\nvalue = [3, 1]\nclass = 0", fillcolor="#eeab7b"] ;
10 -> 11 ;
12 [label="gini = 0.0\nsamples = 1\nvalue = [0, 1]\nclass = 1", fillcolor="#399de5"] ;
11 -> 12 ;
13 [label="gini = 0.0\nsamples = 3\nvalue = [3, 0]\nclass = 0", fillcolor="#e58139"] ;
11 -> 13 ;
14 [label="multi_thrpy <= 0.5\ngini = 0.302\nsamples = 27\nvalue = [5, 22]\nclass = 1", fillcolor="#66b3eb"] ;
10 -> 14 ;
15 [label="tumor_diagnosis <= 32.5\ngini = 0.49\nsamples = 7\nvalue = [3, 4]\nclass = 1", fillcolor="#cee6f8"] ;
14 -> 15 ;
16 [label="gini = 0.0\nsamples = 3\nvalue = [0, 3]\nclass = 1", fillcolor="#399de5"] ;
15 -> 16 ;
17 [label="race <= 3.0\ngini = 0.375\nsamples = 4\nvalue = [3, 1]\nclass = 0", fillcolor="#eeab7b"] ;
15 -> 17 ;
18 [label="gini = 0.0\nsamples = 1\nvalue = [0, 1]\nclass = 1", fillcolor="#399de5"] ;
17 -> 18 ;
19 [label="gini = 0.0\nsamples = 3\nvalue = [3, 0]\nclass = 0", fillcolor="#e58139"] ;
17 -> 19 ;
20 [label="race <= 3.0\ngini = 0.18\nsamples = 20\nvalue = [2, 18]\nclass = 1", fillcolor="#4fa8e8"] ;
14 -> 20 ;
21 [label="brch_thrpy <= 0.5\ngini = 0.408\nsamples = 7\nvalue = [2, 5]\nclass = 1", fillcolor="#88c4ef"] ;
20 -> 21 ;
22 [label="gini = 0.0\nsamples = 1\nvalue = [1, 0]\nclass = 0", fillcolor="#e58139"] ;
21 -> 22 ;
23 [label="rd_thrpy <= 0.5\ngini = 0.278\nsamples = 6\nvalue = [1, 5]\nclass = 1", fillcolor="#61b1ea"] ;
21 -> 23 ;
24 [label="gini = 0.0\nsamples = 4\nvalue = [0, 4]\nclass = 1", fillcolor="#399de5"] ;
23 -> 24 ;
25 [label="tumor_diagnosis <= 28.5\ngini = 0.5\nsamples = 2\nvalue = [1, 1]\nclass = 0", fillcolor="#ffffff"] ;
23 -> 25 ;
26 [label="gini = 0.0\nsamples = 1\nvalue = [0, 1]\nclass = 1", fillcolor="#399de5"] ;
25 -> 26 ;
27 [label="gini = 0.0\nsamples = 1\nvalue = [1, 0]\nclass = 0", fillcolor="#e58139"] ;
25 -> 27 ;
28 [label="gini = 0.0\nsamples = 13\nvalue = [0, 13]\nclass = 1", fillcolor="#399de5"] ;
20 -> 28 ;
29 [label="rd_thrpy <= 0.5\ngini = 0.49\nsamples = 191\nvalue = [82, 109]\nclass = 1", fillcolor="#cee7f9"] ;
9 -> 29 ;
30 [label="tumor_diagnosis <= 40.5\ngini = 0.477\nsamples = 135\nvalue = [53, 82]\nclass = 1", fillcolor="#b9dcf6"] ;
29 -> 30 ;
31 [label="first_degree_history <= 0.5\ngini = 0.491\nsamples = 109\nvalue = [47, 62]\nclass = 1", fillcolor="#cfe7f9"] ;
30 -> 31 ;
32 [label="tumor_diagnosis <= 28.5\ngini = 0.499\nsamples = 87\nvalue = [42, 45]\nclass = 1", fillcolor="#f2f8fd"] ;
31 -> 32 ;
33 [label="chm_thrpy <= 0.5\ngini = 0.476\nsamples = 41\nvalue = [16, 25]\nclass = 1", fillcolor="#b8dcf6"] ;
32 -> 33 ;
34 [label="brch_thrpy <= 0.5\ngini = 0.496\nsamples = 22\nvalue = [12, 10]\nclass = 0", fillcolor="#fbeade"] ;
33 -> 34 ;
35 [label="tumor_diagnosis <= 24.0\ngini = 0.486\nsamples = 12\nvalue = [5, 7]\nclass = 1", fillcolor="#c6e3f8"] ;
34 -> 35 ;
36 [label="multi_thrpy <= 0.5\ngini = 0.469\nsamples = 8\nvalue = [5, 3]\nclass = 0", fillcolor="#f5cdb0"] ;
35 -> 36 ;
37 [label="gini = 0.0\nsamples = 4\nvalue = [4, 0]\nclass = 0", fillcolor="#e58139"] ;
36 -> 37 ;
38 [label="tumor_diagnosis <= 20.0\ngini = 0.375\nsamples = 4\nvalue = [1, 3]\nclass = 1", fillcolor="#7bbeee"] ;
36 -> 38 ;
39 [label="gini = 0.0\nsamples = 3\nvalue = [0, 3]\nclass = 1", fillcolor="#399de5"] ;
38 -> 39 ;
40 [label="gini = 0.0\nsamples = 1\nvalue = [1, 0]\nclass = 0", fillcolor="#e58139"] ;
38 -> 40 ;
41 [label="gini = 0.0\nsamples = 4\nvalue = [0, 4]\nclass = 1", fillcolor="#399de5"] ;
35 -> 41 ;
42 [label="tumor_diagnosis <= 22.0\ngini = 0.42\nsamples = 10\nvalue = [7, 3]\nclass = 0", fillcolor="#f0b78e"] ;
34 -> 42 ;
43 [label="multi_thrpy <= 0.5\ngini = 0.5\nsamples = 6\nvalue = [3, 3]\nclass = 0", fillcolor="#ffffff"] ;
42 -> 43 ;
44 [label="tumor_diagnosis <= 12.0\ngini = 0.375\nsamples = 4\nvalue = [1, 3]\nclass = 1", fillcolor="#7bbeee"] ;
43 -> 44 ;
45 [label="gini = 0.0\nsamples = 2\nvalue = [0, 2]\nclass = 1", fillcolor="#399de5"] ;
44 -> 45 ;
46 [label="race <= 3.0\ngini = 0.5\nsamples = 2\nvalue = [1, 1]\nclass = 0", fillcolor="#ffffff"] ;
44 -> 46 ;
47 [label="gini = 0.0\nsamples = 1\nvalue = [1, 0]\nclass = 0", fillcolor="#e58139"] ;
46 -> 47 ;
48 [label="gini = 0.0\nsamples = 1\nvalue = [0, 1]\nclass = 1", fillcolor="#399de5"] ;
46 -> 48 ;
49 [label="gini = 0.0\nsamples = 2\nvalue = [2, 0]\nclass = 0", fillcolor="#e58139"] ;
43 -> 49 ;
50 [label="gini = 0.0\nsamples = 4\nvalue = [4, 0]\nclass = 0", fillcolor="#e58139"] ;
42 -> 50 ;
51 [label="race <= 1.5\ngini = 0.332\nsamples = 19\nvalue = [4, 15]\nclass = 1", fillcolor="#6eb7ec"] ;
33 -> 51 ;
52 [label="age_group <= 0.5\ngini = 0.5\nsamples = 2\nvalue = [1, 1]\nclass = 0", fillcolor="#ffffff"] ;
51 -> 52 ;
53 [label="gini = 0.0\nsamples = 1\nvalue = [0, 1]\nclass = 1", fillcolor="#399de5"] ;
52 -> 53 ;
54 [label="gini = 0.0\nsamples = 1\nvalue = [1, 0]\nclass = 0", fillcolor="#e58139"] ;
52 -> 54 ;
55 [label="tumor_diagnosis <= 25.5\ngini = 0.291\nsamples = 17\nvalue = [3, 14]\nclass = 1", fillcolor="#63b2eb"] ;
51 -> 55 ;
56 [label="tumor_diagnosis <= 17.0\ngini = 0.153\nsamples = 12\nvalue = [1, 11]\nclass = 1", fillcolor="#4ba6e7"] ;
55 -> 56 ;
57 [label="tumor_diagnosis <= 14.5\ngini = 0.444\nsamples = 3\nvalue = [1, 2]\nclass = 1", fillcolor="#9ccef2"] ;
56 -> 57 ;
58 [label="gini = 0.0\nsamples = 2\nvalue = [0, 2]\nclass = 1", fillcolor="#399de5"] ;
57 -> 58 ;
59 [label="gini = 0.0\nsamples = 1\nvalue = [1, 0]\nclass = 0", fillcolor="#e58139"] ;
57 -> 59 ;
60 [label="gini = 0.0\nsamples = 9\nvalue = [0, 9]\nclass = 1", fillcolor="#399de5"] ;
56 -> 60 ;
61 [label="h_thrpy <= 0.5\ngini = 0.48\nsamples = 5\nvalue = [2, 3]\nclass = 1", fillcolor="#bddef6"] ;
55 -> 61 ;
62 [label="gini = 0.0\nsamples = 3\nvalue = [0, 3]\nclass = 1", fillcolor="#399de5"] ;
61 -> 62 ;
63 [label="gini = 0.0\nsamples = 2\nvalue = [2, 0]\nclass = 0", fillcolor="#e58139"] ;
61 -> 63 ;
64 [label="age_group <= 0.5\ngini = 0.491\nsamples = 46\nvalue = [26, 20]\nclass = 0", fillcolor="#f9e2d1"] ;
32 -> 64 ;
65 [label="tumor_diagnosis <= 34.5\ngini = 0.483\nsamples = 22\nvalue = [9, 13]\nclass = 1", fillcolor="#c2e1f7"] ;
64 -> 65 ;
66 [label="cry_thrpy <= 0.5\ngini = 0.408\nsamples = 7\nvalue = [5, 2]\nclass = 0", fillcolor="#efb388"] ;
65 -> 66 ;
67 [label="gini = 0.0\nsamples = 4\nvalue = [4, 0]\nclass = 0", fillcolor="#e58139"] ;
66 -> 67 ;
68 [label="multi_thrpy <= 0.5\ngini = 0.444\nsamples = 3\nvalue = [1, 2]\nclass = 1", fillcolor="#9ccef2"] ;
66 -> 68 ;
69 [label="gini = 0.0\nsamples = 1\nvalue = [0, 1]\nclass = 1", fillcolor="#399de5"] ;
68 -> 69 ;
70 [label="chm_thrpy <= 0.5\ngini = 0.5\nsamples = 2\nvalue = [1, 1]\nclass = 0", fillcolor="#ffffff"] ;
68 -> 70 ;
71 [label="gini = 0.0\nsamples = 1\nvalue = [1, 0]\nclass = 0", fillcolor="#e58139"] ;
70 -> 71 ;
72 [label="gini = 0.0\nsamples = 1\nvalue = [0, 1]\nclass = 1", fillcolor="#399de5"] ;
70 -> 72 ;
73 [label="race <= 3.0\ngini = 0.391\nsamples = 15\nvalue = [4, 11]\nclass = 1", fillcolor="#81c1ee"] ;
65 -> 73 ;
74 [label="cry_thrpy <= 0.5\ngini = 0.48\nsamples = 5\nvalue = [3, 2]\nclass = 0", fillcolor="#f6d5bd"] ;
73 -> 74 ;
75 [label="brch_thrpy <= 0.5\ngini = 0.444\nsamples = 3\nvalue = [1, 2]\nclass = 1", fillcolor="#9ccef2"] ;
74 -> 75 ;
76 [label="gini = 0.0\nsamples = 1\nvalue = [0, 1]\nclass = 1", fillcolor="#399de5"] ;
75 -> 76 ;
77 [label="tumor_diagnosis <= 36.0\ngini = 0.5\nsamples = 2\nvalue = [1, 1]\nclass = 0", fillcolor="#ffffff"] ;
75 -> 77 ;
78 [label="gini = 0.0\nsamples = 1\nvalue = [0, 1]\nclass = 1", fillcolor="#399de5"] ;
77 -> 78 ;
79 [label="gini = 0.0\nsamples = 1\nvalue = [1, 0]\nclass = 0", fillcolor="#e58139"] ;
77 -> 79 ;
80 [label="gini = 0.0\nsamples = 2\nvalue = [2, 0]\nclass = 0", fillcolor="#e58139"] ;
74 -> 80 ;
81 [label="Obesity <= -0.5\ngini = 0.18\nsamples = 10\nvalue = [1, 9]\nclass = 1", fillcolor="#4fa8e8"] ;
73 -> 81 ;
82 [label="tumor_diagnosis <= 38.0\ngini = 0.444\nsamples = 3\nvalue = [1, 2]\nclass = 1", fillcolor="#9ccef2"] ;
81 -> 82 ;
83 [label="gini = 0.0\nsamples = 2\nvalue = [0, 2]\nclass = 1", fillcolor="#399de5"] ;
82 -> 83 ;
84 [label="gini = 0.0\nsamples = 1\nvalue = [1, 0]\nclass = 0", fillcolor="#e58139"] ;
82 -> 84 ;
85 [label="gini = 0.0\nsamples = 7\nvalue = [0, 7]\nclass = 1", fillcolor="#399de5"] ;
81 -> 85 ;
86 [label="h_thrpy <= 0.5\ngini = 0.413\nsamples = 24\nvalue = [17, 7]\nclass = 0", fillcolor="#f0b58b"] ;
64 -> 86 ;
87 [label="brch_thrpy <= 0.5\ngini = 0.291\nsamples = 17\nvalue = [14, 3]\nclass = 0", fillcolor="#eb9c63"] ;
86 -> 87 ;
88 [label="multi_thrpy <= 0.5\ngini = 0.469\nsamples = 8\nvalue = [5, 3]\nclass = 0", fillcolor="#f5cdb0"] ;
87 -> 88 ;
89 [label="tumor_diagnosis <= 33.0\ngini = 0.375\nsamples = 4\nvalue = [1, 3]\nclass = 1", fillcolor="#7bbeee"] ;
88 -> 89 ;
90 [label="gini = 0.0\nsamples = 2\nvalue = [0, 2]\nclass = 1", fillcolor="#399de5"] ;
89 -> 90 ;
91 [label="tumor_diagnosis <= 36.0\ngini = 0.5\nsamples = 2\nvalue = [1, 1]\nclass = 0", fillcolor="#ffffff"] ;
89 -> 91 ;
92 [label="gini = 0.0\nsamples = 1\nvalue = [1, 0]\nclass = 0", fillcolor="#e58139"] ;
91 -> 92 ;
93 [label="gini = 0.0\nsamples = 1\nvalue = [0, 1]\nclass = 1", fillcolor="#399de5"] ;
91 -> 93 ;
94 [label="gini = 0.0\nsamples = 4\nvalue = [4, 0]\nclass = 0", fillcolor="#e58139"] ;
88 -> 94 ;
95 [label="gini = 0.0\nsamples = 9\nvalue = [9, 0]\nclass = 0", fillcolor="#e58139"] ;
87 -> 95 ;
96 [label="previous_cancer <= 0.5\ngini = 0.49\nsamples = 7\nvalue = [3, 4]\nclass = 1", fillcolor="#cee6f8"] ;
86 -> 96 ;
97 [label="chm_thrpy <= 0.5\ngini = 0.444\nsamples = 6\nvalue = [2, 4]\nclass = 1", fillcolor="#9ccef2"] ;
96 -> 97 ;
98 [label="gini = 0.0\nsamples = 3\nvalue = [0, 3]\nclass = 1", fillcolor="#399de5"] ;
97 -> 98 ;
99 [label="gleason_grade <= 1.5\ngini = 0.444\nsamples = 3\nvalue = [2, 1]\nclass = 0", fillcolor="#f2c09c"] ;
97 -> 99 ;
100 [label="gini = 0.0\nsamples = 2\nvalue = [2, 0]\nclass = 0", fillcolor="#e58139"] ;
99 -> 100 ;
101 [label="gini = 0.0\nsamples = 1\nvalue = [0, 1]\nclass = 1", fillcolor="#399de5"] ;
99 -> 101 ;
102 [label="gini = 0.0\nsamples = 1\nvalue = [1, 0]\nclass = 0", fillcolor="#e58139"] ;
96 -> 102 ;
103 [label="tumor_diagnosis <= 26.0\ngini = 0.351\nsamples = 22\nvalue = [5, 17]\nclass = 1", fillcolor="#73baed"] ;
31 -> 103 ;
104 [label="gini = 0.0\nsamples = 6\nvalue = [0, 6]\nclass = 1", fillcolor="#399de5"] ;
103 -> 104 ;
105 [label="tumor_diagnosis <= 28.5\ngini = 0.43\nsamples = 16\nvalue = [5, 11]\nclass = 1", fillcolor="#93caf1"] ;
103 -> 105 ;
106 [label="gini = 0.0\nsamples = 2\nvalue = [2, 0]\nclass = 0", fillcolor="#e58139"] ;
105 -> 106 ;
107 [label="tumor_diagnosis <= 35.0\ngini = 0.337\nsamples = 14\nvalue = [3, 11]\nclass = 1", fillcolor="#6fb8ec"] ;
105 -> 107 ;
108 [label="h_thrpy <= 0.5\ngini = 0.42\nsamples = 10\nvalue = [3, 7]\nclass = 1", fillcolor="#8ec7f0"] ;
107 -> 108 ;
109 [label="previous_cancer <= 0.5\ngini = 0.32\nsamples = 5\nvalue = [1, 4]\nclass = 1", fillcolor="#6ab6ec"] ;
108 -> 109 ;
110 [label="gini = 0.0\nsamples = 4\nvalue = [0, 4]\nclass = 1", fillcolor="#399de5"] ;
109 -> 110 ;
111 [label="gini = 0.0\nsamples = 1\nvalue = [1, 0]\nclass = 0", fillcolor="#e58139"] ;
109 -> 111 ;
112 [label="tumor_diagnosis <= 33.5\ngini = 0.48\nsamples = 5\nvalue = [2, 3]\nclass = 1", fillcolor="#bddef6"] ;
108 -> 112 ;
113 [label="age_group <= 0.5\ngini = 0.375\nsamples = 4\nvalue = [1, 3]\nclass = 1", fillcolor="#7bbeee"] ;
112 -> 113 ;
114 [label="tumor_diagnosis <= 31.5\ngini = 0.5\nsamples = 2\nvalue = [1, 1]\nclass = 0", fillcolor="#ffffff"] ;
113 -> 114 ;
115 [label="gini = 0.0\nsamples = 1\nvalue = [1, 0]\nclass = 0", fillcolor="#e58139"] ;
114 -> 115 ;
116 [label="gini = 0.0\nsamples = 1\nvalue = [0, 1]\nclass = 1", fillcolor="#399de5"] ;
114 -> 116 ;
117 [label="gini = 0.0\nsamples = 2\nvalue = [0, 2]\nclass = 1", fillcolor="#399de5"] ;
113 -> 117 ;
118 [label="gini = 0.0\nsamples = 1\nvalue = [1, 0]\nclass = 0", fillcolor="#e58139"] ;
112 -> 118 ;
119 [label="gini = 0.0\nsamples = 4\nvalue = [0, 4]\nclass = 1", fillcolor="#399de5"] ;
107 -> 119 ;
120 [label="cry_thrpy <= 0.5\ngini = 0.355\nsamples = 26\nvalue = [6, 20]\nclass = 1", fillcolor="#74baed"] ;
30 -> 120 ;
121 [label="stage <= 1.5\ngini = 0.278\nsamples = 18\nvalue = [3, 15]\nclass = 1", fillcolor="#61b1ea"] ;
120 -> 121 ;
122 [label="gini = 0.0\nsamples = 1\nvalue = [1, 0]\nclass = 0", fillcolor="#e58139"] ;
121 -> 122 ;
123 [label="Obesity <= -0.5\ngini = 0.208\nsamples = 17\nvalue = [2, 15]\nclass = 1", fillcolor="#53aae8"] ;
121 -> 123 ;
124 [label="brch_thrpy <= 0.5\ngini = 0.5\nsamples = 2\nvalue = [1, 1]\nclass = 0", fillcolor="#ffffff"] ;
123 -> 124 ;
125 [label="gini = 0.0\nsamples = 1\nvalue = [0, 1]\nclass = 1", fillcolor="#399de5"] ;
124 -> 125 ;
126 [label="gini = 0.0\nsamples = 1\nvalue = [1, 0]\nclass = 0", fillcolor="#e58139"] ;
124 -> 126 ;
127 [label="tumor_diagnosis <= 46.5\ngini = 0.124\nsamples = 15\nvalue = [1, 14]\nclass = 1", fillcolor="#47a4e7"] ;
123 -> 127 ;
128 [label="gini = 0.0\nsamples = 12\nvalue = [0, 12]\nclass = 1", fillcolor="#399de5"] ;
127 -> 128 ;
129 [label="chm_thrpy <= 0.5\ngini = 0.444\nsamples = 3\nvalue = [1, 2]\nclass = 1", fillcolor="#9ccef2"] ;
127 -> 129 ;
130 [label="gini = 0.0\nsamples = 2\nvalue = [0, 2]\nclass = 1", fillcolor="#399de5"] ;
129 -> 130 ;
131 [label="gini = 0.0\nsamples = 1\nvalue = [1, 0]\nclass = 0", fillcolor="#e58139"] ;
129 -> 131 ;
132 [label="stage <= 1.5\ngini = 0.469\nsamples = 8\nvalue = [3, 5]\nclass = 1", fillcolor="#b0d8f5"] ;
120 -> 132 ;
133 [label="gini = 0.0\nsamples = 3\nvalue = [0, 3]\nclass = 1", fillcolor="#399de5"] ;
132 -> 133 ;
134 [label="Obesity <= -0.5\ngini = 0.48\nsamples = 5\nvalue = [3, 2]\nclass = 0", fillcolor="#f6d5bd"] ;
132 -> 134 ;
135 [label="gini = 0.0\nsamples = 2\nvalue = [0, 2]\nclass = 1", fillcolor="#399de5"] ;
134 -> 135 ;
136 [label="gini = 0.0\nsamples = 3\nvalue = [3, 0]\nclass = 0", fillcolor="#e58139"] ;
134 -> 136 ;
137 [label="tumor_diagnosis <= 46.5\ngini = 0.499\nsamples = 56\nvalue = [29, 27]\nclass = 0", fillcolor="#fdf6f1"] ;
29 -> 137 ;
138 [label="tumor_diagnosis <= 42.5\ngini = 0.493\nsamples = 52\nvalue = [29, 23]\nclass = 0", fillcolor="#fae5d6"] ;
137 -> 138 ;
139 [label="tumor_diagnosis <= 35.5\ngini = 0.5\nsamples = 45\nvalue = [22, 23]\nclass = 1", fillcolor="#f6fbfe"] ;
138 -> 139 ;
140 [label="tumor_diagnosis <= 20.0\ngini = 0.473\nsamples = 26\nvalue = [16, 10]\nclass = 0", fillcolor="#f5d0b5"] ;
139 -> 140 ;
141 [label="gini = 0.0\nsamples = 2\nvalue = [0, 2]\nclass = 1", fillcolor="#399de5"] ;
140 -> 141 ;
142 [label="h_thrpy <= 0.5\ngini = 0.444\nsamples = 24\nvalue = [16, 8]\nclass = 0", fillcolor="#f2c09c"] ;
140 -> 142 ;
143 [label="chm_thrpy <= 0.5\ngini = 0.32\nsamples = 15\nvalue = [12, 3]\nclass = 0", fillcolor="#eca06a"] ;
142 -> 143 ;
144 [label="age_group <= 0.5\ngini = 0.444\nsamples = 9\nvalue = [6, 3]\nclass = 0", fillcolor="#f2c09c"] ;
143 -> 144 ;
145 [label="gini = 0.0\nsamples = 1\nvalue = [0, 1]\nclass = 1", fillcolor="#399de5"] ;
144 -> 145 ;
146 [label="cry_thrpy <= 0.5\ngini = 0.375\nsamples = 8\nvalue = [6, 2]\nclass = 0", fillcolor="#eeab7b"] ;
144 -> 146 ;
147 [label="tumor_diagnosis <= 27.5\ngini = 0.48\nsamples = 5\nvalue = [3, 2]\nclass = 0", fillcolor="#f6d5bd"] ;
146 -> 147 ;
148 [label="gini = 0.0\nsamples = 1\nvalue = [1, 0]\nclass = 0", fillcolor="#e58139"] ;
147 -> 148 ;
149 [label="tumor_diagnosis <= 30.5\ngini = 0.5\nsamples = 4\nvalue = [2, 2]\nclass = 0", fillcolor="#ffffff"] ;
147 -> 149 ;
150 [label="gini = 0.0\nsamples = 1\nvalue = [0, 1]\nclass = 1", fillcolor="#399de5"] ;
149 -> 150 ;
151 [label="stage <= 2.5\ngini = 0.444\nsamples = 3\nvalue = [2, 1]\nclass = 0", fillcolor="#f2c09c"] ;
149 -> 151 ;
152 [label="gini = 0.0\nsamples = 1\nvalue = [0, 1]\nclass = 1", fillcolor="#399de5"] ;
151 -> 152 ;
153 [label="gini = 0.0\nsamples = 2\nvalue = [2, 0]\nclass = 0", fillcolor="#e58139"] ;
151 -> 153 ;
154 [label="gini = 0.0\nsamples = 3\nvalue = [3, 0]\nclass = 0", fillcolor="#e58139"] ;
146 -> 154 ;
155 [label="gini = 0.0\nsamples = 6\nvalue = [6, 0]\nclass = 0", fillcolor="#e58139"] ;
143 -> 155 ;
156 [label="chm_thrpy <= 0.5\ngini = 0.494\nsamples = 9\nvalue = [4, 5]\nclass = 1", fillcolor="#d7ebfa"] ;
142 -> 156 ;
157 [label="brch_thrpy <= 0.5\ngini = 0.444\nsamples = 6\nvalue = [4, 2]\nclass = 0", fillcolor="#f2c09c"] ;
156 -> 157 ;
158 [label="gini = 0.0\nsamples = 3\nvalue = [3, 0]\nclass = 0", fillcolor="#e58139"] ;
157 -> 158 ;
159 [label="tumor_diagnosis <= 26.0\ngini = 0.444\nsamples = 3\nvalue = [1, 2]\nclass = 1", fillcolor="#9ccef2"] ;
157 -> 159 ;
160 [label="gini = 0.0\nsamples = 1\nvalue = [1, 0]\nclass = 0", fillcolor="#e58139"] ;
159 -> 160 ;
161 [label="gini = 0.0\nsamples = 2\nvalue = [0, 2]\nclass = 1", fillcolor="#399de5"] ;
159 -> 161 ;
162 [label="gini = 0.0\nsamples = 3\nvalue = [0, 3]\nclass = 1", fillcolor="#399de5"] ;
156 -> 162 ;
163 [label="first_degree_history <= 0.5\ngini = 0.432\nsamples = 19\nvalue = [6, 13]\nclass = 1", fillcolor="#94caf1"] ;
139 -> 163 ;
164 [label="h_thrpy <= 0.5\ngini = 0.36\nsamples = 17\nvalue = [4, 13]\nclass = 1", fillcolor="#76bbed"] ;
163 -> 164 ;
165 [label="stage <= 2.5\ngini = 0.18\nsamples = 10\nvalue = [1, 9]\nclass = 1", fillcolor="#4fa8e8"] ;
164 -> 165 ;
166 [label="gini = 0.0\nsamples = 7\nvalue = [0, 7]\nclass = 1", fillcolor="#399de5"] ;
165 -> 166 ;
167 [label="rad_rem <= 0.5\ngini = 0.444\nsamples = 3\nvalue = [1, 2]\nclass = 1", fillcolor="#9ccef2"] ;
165 -> 167 ;
168 [label="gini = 0.0\nsamples = 2\nvalue = [0, 2]\nclass = 1", fillcolor="#399de5"] ;
167 -> 168 ;
169 [label="gini = 0.0\nsamples = 1\nvalue = [1, 0]\nclass = 0", fillcolor="#e58139"] ;
167 -> 169 ;
170 [label="brch_thrpy <= 0.5\ngini = 0.49\nsamples = 7\nvalue = [3, 4]\nclass = 1", fillcolor="#cee6f8"] ;
164 -> 170 ;
171 [label="tumor_diagnosis <= 38.5\ngini = 0.48\nsamples = 5\nvalue = [3, 2]\nclass = 0", fillcolor="#f6d5bd"] ;
170 -> 171 ;
172 [label="chm_thrpy <= 0.5\ngini = 0.444\nsamples = 3\nvalue = [1, 2]\nclass = 1", fillcolor="#9ccef2"] ;
171 -> 172 ;
173 [label="gini = 0.0\nsamples = 2\nvalue = [0, 2]\nclass = 1", fillcolor="#399de5"] ;
172 -> 173 ;
174 [label="gini = 0.0\nsamples = 1\nvalue = [1, 0]\nclass = 0", fillcolor="#e58139"] ;
172 -> 174 ;
175 [label="gini = 0.0\nsamples = 2\nvalue = [2, 0]\nclass = 0", fillcolor="#e58139"] ;
171 -> 175 ;
176 [label="gini = 0.0\nsamples = 2\nvalue = [0, 2]\nclass = 1", fillcolor="#399de5"] ;
170 -> 176 ;
177 [label="gini = 0.0\nsamples = 2\nvalue = [2, 0]\nclass = 0", fillcolor="#e58139"] ;
163 -> 177 ;
178 [label="gini = 0.0\nsamples = 7\nvalue = [7, 0]\nclass = 0", fillcolor="#e58139"] ;
138 -> 178 ;
179 [label="gini = 0.0\nsamples = 4\nvalue = [0, 4]\nclass = 1", fillcolor="#399de5"] ;
137 -> 179 ;
180 [label="race <= 1.5\ngini = 0.44\nsamples = 1427\nvalue = [467, 960]\nclass = 1", fillcolor="#99cdf2"] ;
8 -> 180 ;
181 [label="rad_rem <= 0.5\ngini = 0.493\nsamples = 84\nvalue = [37, 47]\nclass = 1", fillcolor="#d5eaf9"] ;
180 -> 181 ;
182 [label="h_thrpy <= 0.5\ngini = 0.471\nsamples = 66\nvalue = [25, 41]\nclass = 1", fillcolor="#b2d9f5"] ;
181 -> 182 ;
183 [label="tumor_diagnosis <= 28.5\ngini = 0.5\nsamples = 39\nvalue = [19, 20]\nclass = 1", fillcolor="#f5fafe"] ;
182 -> 183 ;
184 [label="stage <= 1.5\ngini = 0.346\nsamples = 9\nvalue = [2, 7]\nclass = 1", fillcolor="#72b9ec"] ;
183 -> 184 ;
185 [label="gini = 0.0\nsamples = 1\nvalue = [1, 0]\nclass = 0", fillcolor="#e58139"] ;
184 -> 185 ;
186 [label="gleason_grade <= 1.5\ngini = 0.219\nsamples = 8\nvalue = [1, 7]\nclass = 1", fillcolor="#55abe9"] ;
184 -> 186 ;
187 [label="gini = 0.0\nsamples = 6\nvalue = [0, 6]\nclass = 1", fillcolor="#399de5"] ;
186 -> 187 ;
188 [label="cry_thrpy <= 0.5\ngini = 0.5\nsamples = 2\nvalue = [1, 1]\nclass = 0", fillcolor="#ffffff"] ;
186 -> 188 ;
189 [label="gini = 0.0\nsamples = 1\nvalue = [0, 1]\nclass = 1", fillcolor="#399de5"] ;
188 -> 189 ;
190 [label="gini = 0.0\nsamples = 1\nvalue = [1, 0]\nclass = 0", fillcolor="#e58139"] ;
188 -> 190 ;
191 [label="first_degree_history <= 0.5\ngini = 0.491\nsamples = 30\nvalue = [17, 13]\nclass = 0", fillcolor="#f9e1d0"] ;
183 -> 191 ;
192 [label="cry_thrpy <= 0.5\ngini = 0.497\nsamples = 28\nvalue = [15, 13]\nclass = 0", fillcolor="#fceee5"] ;
191 -> 192 ;
193 [label="Obesity <= -0.5\ngini = 0.444\nsamples = 12\nvalue = [8, 4]\nclass = 0", fillcolor="#f2c09c"] ;
192 -> 193 ;
194 [label="gini = 0.0\nsamples = 4\nvalue = [4, 0]\nclass = 0", fillcolor="#e58139"] ;
193 -> 194 ;
195 [label="brch_thrpy <= 0.5\ngini = 0.5\nsamples = 8\nvalue = [4, 4]\nclass = 0", fillcolor="#ffffff"] ;
193 -> 195 ;
196 [label="gini = 0.0\nsamples = 2\nvalue = [0, 2]\nclass = 1", fillcolor="#399de5"] ;
195 -> 196 ;
197 [label="stage <= 1.5\ngini = 0.444\nsamples = 6\nvalue = [4, 2]\nclass = 0", fillcolor="#f2c09c"] ;
195 -> 197 ;
198 [label="gini = 0.0\nsamples = 1\nvalue = [0, 1]\nclass = 1", fillcolor="#399de5"] ;
197 -> 198 ;
199 [label="chm_thrpy <= 0.5\ngini = 0.32\nsamples = 5\nvalue = [4, 1]\nclass = 0", fillcolor="#eca06a"] ;
197 -> 199 ;
200 [label="tumor_diagnosis <= 38.5\ngini = 0.5\nsamples = 2\nvalue = [1, 1]\nclass = 0", fillcolor="#ffffff"] ;
199 -> 200 ;
201 [label="gini = 0.0\nsamples = 1\nvalue = [0, 1]\nclass = 1", fillcolor="#399de5"] ;
200 -> 201 ;
202 [label="gini = 0.0\nsamples = 1\nvalue = [1, 0]\nclass = 0", fillcolor="#e58139"] ;
200 -> 202 ;
203 [label="gini = 0.0\nsamples = 3\nvalue = [3, 0]\nclass = 0", fillcolor="#e58139"] ;
199 -> 203 ;
204 [label="brch_thrpy <= 0.5\ngini = 0.492\nsamples = 16\nvalue = [7, 9]\nclass = 1", fillcolor="#d3e9f9"] ;
192 -> 204 ;
205 [label="stage <= 2.5\ngini = 0.5\nsamples = 14\nvalue = [7, 7]\nclass = 0", fillcolor="#ffffff"] ;
204 -> 205 ;
206 [label="Obesity <= -0.5\ngini = 0.486\nsamples = 12\nvalue = [7, 5]\nclass = 0", fillcolor="#f8dbc6"] ;
205 -> 206 ;
207 [label="gini = 0.0\nsamples = 2\nvalue = [0, 2]\nclass = 1", fillcolor="#399de5"] ;
206 -> 207 ;
208 [label="rd_thrpy <= 0.5\ngini = 0.42\nsamples = 10\nvalue = [7, 3]\nclass = 0", fillcolor="#f0b78e"] ;
206 -> 208 ;
209 [label="age_group <= 3.5\ngini = 0.278\nsamples = 6\nvalue = [5, 1]\nclass = 0", fillcolor="#ea9a61"] ;
208 -> 209 ;
210 [label="tumor_diagnosis <= 39.5\ngini = 0.444\nsamples = 3\nvalue = [2, 1]\nclass = 0", fillcolor="#f2c09c"] ;
209 -> 210 ;
211 [label="multi_thrpy <= 0.5\ngini = 0.5\nsamples = 2\nvalue = [1, 1]\nclass = 0", fillcolor="#ffffff"] ;
210 -> 211 ;
212 [label="gini = 0.0\nsamples = 1\nvalue = [1, 0]\nclass = 0", fillcolor="#e58139"] ;
211 -> 212 ;
213 [label="gini = 0.0\nsamples = 1\nvalue = [0, 1]\nclass = 1", fillcolor="#399de5"] ;
211 -> 213 ;
214 [label="gini = 0.0\nsamples = 1\nvalue = [1, 0]\nclass = 0", fillcolor="#e58139"] ;
210 -> 214 ;
215 [label="gini = 0.0\nsamples = 3\nvalue = [3, 0]\nclass = 0", fillcolor="#e58139"] ;
209 -> 215 ;
216 [label="age_group <= 3.5\ngini = 0.5\nsamples = 4\nvalue = [2, 2]\nclass = 0", fillcolor="#ffffff"] ;
208 -> 216 ;
217 [label="gini = 0.0\nsamples = 2\nvalue = [2, 0]\nclass = 0", fillcolor="#e58139"] ;
216 -> 217 ;
218 [label="gini = 0.0\nsamples = 2\nvalue = [0, 2]\nclass = 1", fillcolor="#399de5"] ;
216 -> 218 ;
219 [label="gini = 0.0\nsamples = 2\nvalue = [0, 2]\nclass = 1", fillcolor="#399de5"] ;
205 -> 219 ;
220 [label="gini = 0.0\nsamples = 2\nvalue = [0, 2]\nclass = 1", fillcolor="#399de5"] ;
204 -> 220 ;
221 [label="gini = 0.0\nsamples = 2\nvalue = [2, 0]\nclass = 0", fillcolor="#e58139"] ;
191 -> 221 ;
222 [label="age_group <= 3.5\ngini = 0.346\nsamples = 27\nvalue = [6, 21]\nclass = 1", fillcolor="#72b9ec"] ;
182 -> 222 ;
223 [label="race <= 0.0\ngini = 0.133\nsamples = 14\nvalue = [1, 13]\nclass = 1", fillcolor="#48a5e7"] ;
222 -> 223 ;
224 [label="tumor_diagnosis <= 42.5\ngini = 0.444\nsamples = 3\nvalue = [1, 2]\nclass = 1", fillcolor="#9ccef2"] ;
223 -> 224 ;
225 [label="gini = 0.0\nsamples = 1\nvalue = [0, 1]\nclass = 1", fillcolor="#399de5"] ;
224 -> 225 ;
226 [label="stage <= 2.5\ngini = 0.5\nsamples = 2\nvalue = [1, 1]\nclass = 0", fillcolor="#ffffff"] ;
224 -> 226 ;
227 [label="gini = 0.0\nsamples = 1\nvalue = [1, 0]\nclass = 0", fillcolor="#e58139"] ;
226 -> 227 ;
228 [label="gini = 0.0\nsamples = 1\nvalue = [0, 1]\nclass = 1", fillcolor="#399de5"] ;
226 -> 228 ;
229 [label="gini = 0.0\nsamples = 11\nvalue = [0, 11]\nclass = 1", fillcolor="#399de5"] ;
223 -> 229 ;
230 [label="Obesity <= -0.5\ngini = 0.473\nsamples = 13\nvalue = [5, 8]\nclass = 1", fillcolor="#b5daf5"] ;
222 -> 230 ;
231 [label="stage <= 1.5\ngini = 0.375\nsamples = 4\nvalue = [3, 1]\nclass = 0", fillcolor="#eeab7b"] ;
230 -> 231 ;
232 [label="gini = 0.0\nsamples = 1\nvalue = [0, 1]\nclass = 1", fillcolor="#399de5"] ;
231 -> 232 ;
233 [label="gini = 0.0\nsamples = 3\nvalue = [3, 0]\nclass = 0", fillcolor="#e58139"] ;
231 -> 233 ;
234 [label="tumor_diagnosis <= 41.5\ngini = 0.346\nsamples = 9\nvalue = [2, 7]\nclass = 1", fillcolor="#72b9ec"] ;
230 -> 234 ;
235 [label="tumor_diagnosis <= 39.5\ngini = 0.48\nsamples = 5\nvalue = [2, 3]\nclass = 1", fillcolor="#bddef6"] ;
234 -> 235 ;
236 [label="stage <= 2.5\ngini = 0.375\nsamples = 4\nvalue = [1, 3]\nclass = 1", fillcolor="#7bbeee"] ;
235 -> 236 ;
237 [label="gini = 0.0\nsamples = 1\nvalue = [1, 0]\nclass = 0", fillcolor="#e58139"] ;
236 -> 237 ;
238 [label="gini = 0.0\nsamples = 3\nvalue = [0, 3]\nclass = 1", fillcolor="#399de5"] ;
236 -> 238 ;
239 [label="gini = 0.0\nsamples = 1\nvalue = [1, 0]\nclass = 0", fillcolor="#e58139"] ;
235 -> 239 ;
240 [label="gini = 0.0\nsamples = 4\nvalue = [0, 4]\nclass = 1", fillcolor="#399de5"] ;
234 -> 240 ;
241 [label="stage <= 2.5\ngini = 0.444\nsamples = 18\nvalue = [12, 6]\nclass = 0", fillcolor="#f2c09c"] ;
181 -> 241 ;
242 [label="chm_thrpy <= 0.5\ngini = 0.375\nsamples = 16\nvalue = [12, 4]\nclass = 0", fillcolor="#eeab7b"] ;
241 -> 242 ;
243 [label="gini = 0.0\nsamples = 7\nvalue = [7, 0]\nclass = 0", fillcolor="#e58139"] ;
242 -> 243 ;
244 [label="tumor_diagnosis <= 31.0\ngini = 0.494\nsamples = 9\nvalue = [5, 4]\nclass = 0", fillcolor="#fae6d7"] ;
242 -> 244 ;
245 [label="gini = 0.0\nsamples = 2\nvalue = [0, 2]\nclass = 1", fillcolor="#399de5"] ;
244 -> 245 ;
246 [label="age_group <= 3.5\ngini = 0.408\nsamples = 7\nvalue = [5, 2]\nclass = 0", fillcolor="#efb388"] ;
244 -> 246 ;
247 [label="brch_thrpy <= 0.5\ngini = 0.444\nsamples = 3\nvalue = [1, 2]\nclass = 1", fillcolor="#9ccef2"] ;
246 -> 247 ;
248 [label="rd_thrpy <= 0.5\ngini = 0.5\nsamples = 2\nvalue = [1, 1]\nclass = 0", fillcolor="#ffffff"] ;
247 -> 248 ;
249 [label="gini = 0.0\nsamples = 1\nvalue = [1, 0]\nclass = 0", fillcolor="#e58139"] ;
248 -> 249 ;
250 [label="gini = 0.0\nsamples = 1\nvalue = [0, 1]\nclass = 1", fillcolor="#399de5"] ;
248 -> 250 ;
251 [label="gini = 0.0\nsamples = 1\nvalue = [0, 1]\nclass = 1", fillcolor="#399de5"] ;
247 -> 251 ;
252 [label="gini = 0.0\nsamples = 4\nvalue = [4, 0]\nclass = 0", fillcolor="#e58139"] ;
246 -> 252 ;
253 [label="gini = 0.0\nsamples = 2\nvalue = [0, 2]\nclass = 1", fillcolor="#399de5"] ;
241 -> 253 ;
254 [label="h_thrpy <= 0.5\ngini = 0.435\nsamples = 1343\nvalue = [430, 913]\nclass = 1", fillcolor="#96cbf1"] ;
180 -> 254 ;
255 [label="Obesity <= -0.5\ngini = 0.423\nsamples = 909\nvalue = [276, 633]\nclass = 1", fillcolor="#8fc8f0"] ;
254 -> 255 ;
256 [label="race <= 3.5\ngini = 0.464\nsamples = 167\nvalue = [61, 106]\nclass = 1", fillcolor="#abd5f4"] ;
255 -> 256 ;
257 [label="tumor_diagnosis <= 22.0\ngini = 0.298\nsamples = 33\nvalue = [6, 27]\nclass = 1", fillcolor="#65b3eb"] ;
256 -> 257 ;
258 [label="age_group <= 3.5\ngini = 0.444\nsamples = 3\nvalue = [2, 1]\nclass = 0", fillcolor="#f2c09c"] ;
257 -> 258 ;
259 [label="gini = 0.0\nsamples = 2\nvalue = [2, 0]\nclass = 0", fillcolor="#e58139"] ;
258 -> 259 ;
260 [label="gini = 0.0\nsamples = 1\nvalue = [0, 1]\nclass = 1", fillcolor="#399de5"] ;
258 -> 260 ;
261 [label="chm_thrpy <= 0.5\ngini = 0.231\nsamples = 30\nvalue = [4, 26]\nclass = 1", fillcolor="#57ace9"] ;
257 -> 261 ;
262 [label="multi_thrpy <= 0.5\ngini = 0.332\nsamples = 19\nvalue = [4, 15]\nclass = 1", fillcolor="#6eb7ec"] ;
261 -> 262 ;
263 [label="gini = 0.0\nsamples = 6\nvalue = [0, 6]\nclass = 1", fillcolor="#399de5"] ;
262 -> 263 ;
264 [label="age_group <= 3.5\ngini = 0.426\nsamples = 13\nvalue = [4, 9]\nclass = 1", fillcolor="#91c9f1"] ;
262 -> 264 ;
265 [label="gini = 0.0\nsamples = 3\nvalue = [0, 3]\nclass = 1", fillcolor="#399de5"] ;
264 -> 265 ;
266 [label="tumor_diagnosis <= 35.5\ngini = 0.48\nsamples = 10\nvalue = [4, 6]\nclass = 1", fillcolor="#bddef6"] ;
264 -> 266 ;
267 [label="rd_thrpy <= 0.5\ngini = 0.48\nsamples = 5\nvalue = [3, 2]\nclass = 0", fillcolor="#f6d5bd"] ;
266 -> 267 ;
268 [label="rad_rem <= 0.5\ngini = 0.444\nsamples = 3\nvalue = [1, 2]\nclass = 1", fillcolor="#9ccef2"] ;
267 -> 268 ;
269 [label="gini = 0.0\nsamples = 1\nvalue = [1, 0]\nclass = 0", fillcolor="#e58139"] ;
268 -> 269 ;
270 [label="gini = 0.0\nsamples = 2\nvalue = [0, 2]\nclass = 1", fillcolor="#399de5"] ;
268 -> 270 ;
271 [label="gini = 0.0\nsamples = 2\nvalue = [2, 0]\nclass = 0", fillcolor="#e58139"] ;
267 -> 271 ;
272 [label="gleason_grade <= 1.5\ngini = 0.32\nsamples = 5\nvalue = [1, 4]\nclass = 1", fillcolor="#6ab6ec"] ;
266 -> 272 ;
273 [label="gini = 0.0\nsamples = 4\nvalue = [0, 4]\nclass = 1", fillcolor="#399de5"] ;
272 -> 273 ;
274 [label="gini = 0.0\nsamples = 1\nvalue = [1, 0]\nclass = 0", fillcolor="#e58139"] ;
272 -> 274 ;
275 [label="gini = 0.0\nsamples = 11\nvalue = [0, 11]\nclass = 1", fillcolor="#399de5"] ;
261 -> 275 ;
276 [label="tumor_diagnosis <= 45.5\ngini = 0.484\nsamples = 134\nvalue = [55, 79]\nclass = 1", fillcolor="#c3e1f7"] ;
256 -> 276 ;
277 [label="first_degree_history <= 1.5\ngini = 0.473\nsamples = 120\nvalue = [46, 74]\nclass = 1", fillcolor="#b4daf5"] ;
276 -> 277 ;
278 [label="tumor_diagnosis <= 44.5\ngini = 0.468\nsamples = 118\nvalue = [44, 74]\nclass = 1", fillcolor="#afd7f4"] ;
277 -> 278 ;
279 [label="tumor_diagnosis <= 42.0\ngini = 0.474\nsamples = 114\nvalue = [44, 70]\nclass = 1", fillcolor="#b5dbf5"] ;
278 -> 279 ;
280 [label="tumor_diagnosis <= 28.5\ngini = 0.468\nsamples = 110\nvalue = [41, 69]\nclass = 1", fillcolor="#afd7f4"] ;
279 -> 280 ;
281 [label="rd_thrpy <= 0.5\ngini = 0.499\nsamples = 25\nvalue = [12, 13]\nclass = 1", fillcolor="#f0f7fd"] ;
280 -> 281 ;
282 [label="brch_thrpy <= 0.5\ngini = 0.488\nsamples = 19\nvalue = [11, 8]\nclass = 0", fillcolor="#f8ddc9"] ;
281 -> 282 ;
283 [label="age_group <= 3.5\ngini = 0.463\nsamples = 11\nvalue = [4, 7]\nclass = 1", fillcolor="#aad5f4"] ;
282 -> 283 ;
284 [label="gini = 0.0\nsamples = 4\nvalue = [0, 4]\nclass = 1", fillcolor="#399de5"] ;
283 -> 284 ;
285 [label="rad_rem <= 0.5\ngini = 0.49\nsamples = 7\nvalue = [4, 3]\nclass = 0", fillcolor="#f8e0ce"] ;
283 -> 285 ;
286 [label="previous_cancer <= 0.5\ngini = 0.444\nsamples = 6\nvalue = [4, 2]\nclass = 0", fillcolor="#f2c09c"] ;
285 -> 286 ;
287 [label="gleason_grade <= 1.5\ngini = 0.32\nsamples = 5\nvalue = [4, 1]\nclass = 0", fillcolor="#eca06a"] ;
286 -> 287 ;
288 [label="gini = 0.0\nsamples = 3\nvalue = [3, 0]\nclass = 0", fillcolor="#e58139"] ;
287 -> 288 ;
289 [label="tumor_diagnosis <= 27.5\ngini = 0.5\nsamples = 2\nvalue = [1, 1]\nclass = 0", fillcolor="#ffffff"] ;
287 -> 289 ;
290 [label="gini = 0.0\nsamples = 1\nvalue = [0, 1]\nclass = 1", fillcolor="#399de5"] ;
289 -> 290 ;
291 [label="gini = 0.0\nsamples = 1\nvalue = [1, 0]\nclass = 0", fillcolor="#e58139"] ;
289 -> 291 ;
292 [label="gini = 0.0\nsamples = 1\nvalue = [0, 1]\nclass = 1", fillcolor="#399de5"] ;
286 -> 292 ;
293 [label="gini = 0.0\nsamples = 1\nvalue = [0, 1]\nclass = 1", fillcolor="#399de5"] ;
285 -> 293 ;
294 [label="stage <= 2.5\ngini = 0.219\nsamples = 8\nvalue = [7, 1]\nclass = 0", fillcolor="#e99355"] ;
282 -> 294 ;
295 [label="gini = 0.0\nsamples = 7\nvalue = [7, 0]\nclass = 0", fillcolor="#e58139"] ;
294 -> 295 ;
296 [label="gini = 0.0\nsamples = 1\nvalue = [0, 1]\nclass = 1", fillcolor="#399de5"] ;
294 -> 296 ;
297 [label="smoker <= -0.5\ngini = 0.278\nsamples = 6\nvalue = [1, 5]\nclass = 1", fillcolor="#61b1ea"] ;
281 -> 297 ;
298 [label="gini = 0.0\nsamples = 1\nvalue = [1, 0]\nclass = 0", fillcolor="#e58139"] ;
297 -> 298 ;
299 [label="gini = 0.0\nsamples = 5\nvalue = [0, 5]\nclass = 1", fillcolor="#399de5"] ;
297 -> 299 ;
300 [label="previous_cancer <= 0.5\ngini = 0.45\nsamples = 85\nvalue = [29, 56]\nclass = 1", fillcolor="#a0d0f2"] ;
280 -> 300 ;
301 [label="tumor_diagnosis <= 39.5\ngini = 0.433\nsamples = 79\nvalue = [25, 54]\nclass = 1", fillcolor="#95caf1"] ;
300 -> 301 ;
302 [label="tumor_diagnosis <= 38.5\ngini = 0.402\nsamples = 61\nvalue = [17, 44]\nclass = 1", fillcolor="#86c3ef"] ;
301 -> 302 ;
303 [label="stage <= 1.5\ngini = 0.431\nsamples = 54\nvalue = [17, 37]\nclass = 1", fillcolor="#94caf1"] ;
302 -> 303 ;
304 [label="rd_thrpy <= 0.5\ngini = 0.444\nsamples = 3\nvalue = [2, 1]\nclass = 0", fillcolor="#f2c09c"] ;
303 -> 304 ;
305 [label="gini = 0.0\nsamples = 2\nvalue = [2, 0]\nclass = 0", fillcolor="#e58139"] ;
304 -> 305 ;
306 [label="gini = 0.0\nsamples = 1\nvalue = [0, 1]\nclass = 1", fillcolor="#399de5"] ;
304 -> 306 ;
307 [label="tumor_diagnosis <= 31.5\ngini = 0.415\nsamples = 51\nvalue = [15, 36]\nclass = 1", fillcolor="#8bc6f0"] ;
303 -> 307 ;
308 [label="cry_thrpy <= 0.5\ngini = 0.32\nsamples = 15\nvalue = [3, 12]\nclass = 1", fillcolor="#6ab6ec"] ;
307 -> 308 ;
309 [label="gini = 0.0\nsamples = 10\nvalue = [0, 10]\nclass = 1", fillcolor="#399de5"] ;
308 -> 309 ;
310 [label="rd_thrpy <= 0.5\ngini = 0.48\nsamples = 5\nvalue = [3, 2]\nclass = 0", fillcolor="#f6d5bd"] ;
308 -> 310 ;
311 [label="chm_thrpy <= 0.5\ngini = 0.444\nsamples = 3\nvalue = [1, 2]\nclass = 1", fillcolor="#9ccef2"] ;
310 -> 311 ;
312 [label="gini = 0.0\nsamples = 2\nvalue = [0, 2]\nclass = 1", fillcolor="#399de5"] ;
311 -> 312 ;
313 [label="gini = 0.0\nsamples = 1\nvalue = [1, 0]\nclass = 0", fillcolor="#e58139"] ;
311 -> 313 ;
314 [label="gini = 0.0\nsamples = 2\nvalue = [2, 0]\nclass = 0", fillcolor="#e58139"] ;
310 -> 314 ;
315 [label="cry_thrpy <= 0.5\ngini = 0.444\nsamples = 36\nvalue = [12, 24]\nclass = 1", fillcolor="#9ccef2"] ;
307 -> 315 ;
316 [label="tumor_diagnosis <= 33.5\ngini = 0.473\nsamples = 26\nvalue = [10, 16]\nclass = 1", fillcolor="#b5daf5"] ;
315 -> 316 ;
317 [label="multi_thrpy <= 0.5\ngini = 0.494\nsamples = 9\nvalue = [5, 4]\nclass = 0", fillcolor="#fae6d7"] ;
316 -> 317 ;
318 [label="gini = 0.0\nsamples = 4\nvalue = [4, 0]\nclass = 0", fillcolor="#e58139"] ;
317 -> 318 ;
319 [label="age_group <= 3.5\ngini = 0.32\nsamples = 5\nvalue = [1, 4]\nclass = 1", fillcolor="#6ab6ec"] ;
317 -> 319 ;
320 [label="gini = 0.0\nsamples = 1\nvalue = [1, 0]\nclass = 0", fillcolor="#e58139"] ;
319 -> 320 ;
321 [label="gini = 0.0\nsamples = 4\nvalue = [0, 4]\nclass = 1", fillcolor="#399de5"] ;
319 -> 321 ;
322 [label="tumor_diagnosis <= 34.5\ngini = 0.415\nsamples = 17\nvalue = [5, 12]\nclass = 1", fillcolor="#8bc6f0"] ;
316 -> 322 ;
323 [label="gini = 0.0\nsamples = 5\nvalue = [0, 5]\nclass = 1", fillcolor="#399de5"] ;
322 -> 323 ;
324 [label="tumor_diagnosis <= 37.0\ngini = 0.486\nsamples = 12\nvalue = [5, 7]\nclass = 1", fillcolor="#c6e3f8"] ;
322 -> 324 ;
325 [label="multi_thrpy <= 0.5\ngini = 0.49\nsamples = 7\nvalue = [4, 3]\nclass = 0", fillcolor="#f8e0ce"] ;
324 -> 325 ;
326 [label="tumor_diagnosis <= 35.5\ngini = 0.48\nsamples = 5\nvalue = [2, 3]\nclass = 1", fillcolor="#bddef6"] ;
325 -> 326 ;
327 [label="stage <= 2.5\ngini = 0.444\nsamples = 3\nvalue = [2, 1]\nclass = 0", fillcolor="#f2c09c"] ;
326 -> 327 ;
328 [label="gini = 0.0\nsamples = 2\nvalue = [2, 0]\nclass = 0", fillcolor="#e58139"] ;
327 -> 328 ;
329 [label="gini = 0.0\nsamples = 1\nvalue = [0, 1]\nclass = 1", fillcolor="#399de5"] ;
327 -> 329 ;
330 [label="gini = 0.0\nsamples = 2\nvalue = [0, 2]\nclass = 1", fillcolor="#399de5"] ;
326 -> 330 ;
331 [label="gini = 0.0\nsamples = 2\nvalue = [2, 0]\nclass = 0", fillcolor="#e58139"] ;
325 -> 331 ;
332 [label="gleason_grade <= 1.5\ngini = 0.32\nsamples = 5\nvalue = [1, 4]\nclass = 1", fillcolor="#6ab6ec"] ;
324 -> 332 ;
333 [label="gini = 0.0\nsamples = 3\nvalue = [0, 3]\nclass = 1", fillcolor="#399de5"] ;
332 -> 333 ;
334 [label="gini = 0.5\nsamples = 2\nvalue = [1, 1]\nclass = 0", fillcolor="#ffffff"] ;
332 -> 334 ;
335 [label="chm_thrpy <= 0.5\ngini = 0.32\nsamples = 10\nvalue = [2, 8]\nclass = 1", fillcolor="#6ab6ec"] ;
315 -> 335 ;
336 [label="gini = 0.0\nsamples = 4\nvalue = [0, 4]\nclass = 1", fillcolor="#399de5"] ;
335 -> 336 ;
337 [label="tumor_diagnosis <= 37.0\ngini = 0.444\nsamples = 6\nvalue = [2, 4]\nclass = 1", fillcolor="#9ccef2"] ;
335 -> 337 ;
338 [label="tumor_diagnosis <= 33.0\ngini = 0.32\nsamples = 5\nvalue = [1, 4]\nclass = 1", fillcolor="#6ab6ec"] ;
337 -> 338 ;
339 [label="gini = 0.0\nsamples = 2\nvalue = [0, 2]\nclass = 1", fillcolor="#399de5"] ;
338 -> 339 ;
340 [label="age_group <= 3.5\ngini = 0.444\nsamples = 3\nvalue = [1, 2]\nclass = 1", fillcolor="#9ccef2"] ;
338 -> 340 ;
341 [label="gini = 0.0\nsamples = 1\nvalue = [1, 0]\nclass = 0", fillcolor="#e58139"] ;
340 -> 341 ;
342 [label="gini = 0.0\nsamples = 2\nvalue = [0, 2]\nclass = 1", fillcolor="#399de5"] ;
340 -> 342 ;
343 [label="gini = 0.0\nsamples = 1\nvalue = [1, 0]\nclass = 0", fillcolor="#e58139"] ;
337 -> 343 ;
344 [label="gini = 0.0\nsamples = 7\nvalue = [0, 7]\nclass = 1", fillcolor="#399de5"] ;
302 -> 344 ;
345 [label="age_group <= 3.5\ngini = 0.494\nsamples = 18\nvalue = [8, 10]\nclass = 1", fillcolor="#d7ebfa"] ;
301 -> 345 ;
346 [label="chm_thrpy <= 0.5\ngini = 0.375\nsamples = 8\nvalue = [2, 6]\nclass = 1", fillcolor="#7bbeee"] ;
345 -> 346 ;
347 [label="gini = 0.0\nsamples = 3\nvalue = [0, 3]\nclass = 1", fillcolor="#399de5"] ;
346 -> 347 ;
348 [label="tumor_diagnosis <= 40.5\ngini = 0.48\nsamples = 5\nvalue = [2, 3]\nclass = 1", fillcolor="#bddef6"] ;
346 -> 348 ;
349 [label="first_degree_history <= -0.5\ngini = 0.444\nsamples = 3\nvalue = [2, 1]\nclass = 0", fillcolor="#f2c09c"] ;
348 -> 349 ;
350 [label="gini = 0.0\nsamples = 1\nvalue = [0, 1]\nclass = 1", fillcolor="#399de5"] ;
349 -> 350 ;
351 [label="gini = 0.0\nsamples = 2\nvalue = [2, 0]\nclass = 0", fillcolor="#e58139"] ;
349 -> 351 ;
352 [label="gini = 0.0\nsamples = 2\nvalue = [0, 2]\nclass = 1", fillcolor="#399de5"] ;
348 -> 352 ;
353 [label="smoker <= -0.5\ngini = 0.48\nsamples = 10\nvalue = [6, 4]\nclass = 0", fillcolor="#f6d5bd"] ;
345 -> 353 ;
354 [label="cry_thrpy <= 0.5\ngini = 0.444\nsamples = 3\nvalue = [1, 2]\nclass = 1", fillcolor="#9ccef2"] ;
353 -> 354 ;
355 [label="gini = 0.0\nsamples = 2\nvalue = [0, 2]\nclass = 1", fillcolor="#399de5"] ;
354 -> 355 ;
356 [label="gini = 0.0\nsamples = 1\nvalue = [1, 0]\nclass = 0", fillcolor="#e58139"] ;
354 -> 356 ;
357 [label="cry_thrpy <= 0.5\ngini = 0.408\nsamples = 7\nvalue = [5, 2]\nclass = 0", fillcolor="#efb388"] ;
353 -> 357 ;
358 [label="gini = 0.0\nsamples = 3\nvalue = [3, 0]\nclass = 0", fillcolor="#e58139"] ;
357 -> 358 ;
359 [label="chm_thrpy <= 0.5\ngini = 0.5\nsamples = 4\nvalue = [2, 2]\nclass = 0", fillcolor="#ffffff"] ;
357 -> 359 ;
360 [label="rd_thrpy <= 0.5\ngini = 0.444\nsamples = 3\nvalue = [1, 2]\nclass = 1", fillcolor="#9ccef2"] ;
359 -> 360 ;
361 [label="gini = 0.5\nsamples = 2\nvalue = [1, 1]\nclass = 0", fillcolor="#ffffff"] ;
360 -> 361 ;
362 [label="gini = 0.0\nsamples = 1\nvalue = [0, 1]\nclass = 1", fillcolor="#399de5"] ;
360 -> 362 ;
363 [label="gini = 0.0\nsamples = 1\nvalue = [1, 0]\nclass = 0", fillcolor="#e58139"] ;
359 -> 363 ;
364 [label="first_degree_history <= 0.5\ngini = 0.444\nsamples = 6\nvalue = [4, 2]\nclass = 0", fillcolor="#f2c09c"] ;
300 -> 364 ;
365 [label="gini = 0.0\nsamples = 2\nvalue = [0, 2]\nclass = 1", fillcolor="#399de5"] ;
364 -> 365 ;
366 [label="gini = 0.0\nsamples = 4\nvalue = [4, 0]\nclass = 0", fillcolor="#e58139"] ;
364 -> 366 ;
367 [label="cry_thrpy <= 0.5\ngini = 0.375\nsamples = 4\nvalue = [3, 1]\nclass = 0", fillcolor="#eeab7b"] ;
279 -> 367 ;
368 [label="gini = 0.5\nsamples = 2\nvalue = [1, 1]\nclass = 0", fillcolor="#ffffff"] ;
367 -> 368 ;
369 [label="gini = 0.0\nsamples = 2\nvalue = [2, 0]\nclass = 0", fillcolor="#e58139"] ;
367 -> 369 ;
370 [label="gini = 0.0\nsamples = 4\nvalue = [0, 4]\nclass = 1", fillcolor="#399de5"] ;
278 -> 370 ;
371 [label="gini = 0.0\nsamples = 2\nvalue = [2, 0]\nclass = 0", fillcolor="#e58139"] ;
277 -> 371 ;
372 [label="first_degree_history <= -0.5\ngini = 0.459\nsamples = 14\nvalue = [9, 5]\nclass = 0", fillcolor="#f3c7a7"] ;
276 -> 372 ;
373 [label="gini = 0.0\nsamples = 2\nvalue = [0, 2]\nclass = 1", fillcolor="#399de5"] ;
372 -> 373 ;
374 [label="rad_rem <= 0.5\ngini = 0.375\nsamples = 12\nvalue = [9, 3]\nclass = 0", fillcolor="#eeab7b"] ;
372 -> 374 ;
375 [label="brch_thrpy <= 0.5\ngini = 0.18\nsamples = 10\nvalue = [9, 1]\nclass = 0", fillcolor="#e88f4f"] ;
374 -> 375 ;
376 [label="age_group <= 3.5\ngini = 0.32\nsamples = 5\nvalue = [4, 1]\nclass = 0", fillcolor="#eca06a"] ;
375 -> 376 ;
377 [label="tumor_diagnosis <= 47.5\ngini = 0.444\nsamples = 3\nvalue = [2, 1]\nclass = 0", fillcolor="#f2c09c"] ;
376 -> 377 ;
378 [label="gini = 0.0\nsamples = 1\nvalue = [0, 1]\nclass = 1", fillcolor="#399de5"] ;
377 -> 378 ;
379 [label="gini = 0.0\nsamples = 2\nvalue = [2, 0]\nclass = 0", fillcolor="#e58139"] ;
377 -> 379 ;
380 [label="gini = 0.0\nsamples = 2\nvalue = [2, 0]\nclass = 0", fillcolor="#e58139"] ;
376 -> 380 ;
381 [label="gini = 0.0\nsamples = 5\nvalue = [5, 0]\nclass = 0", fillcolor="#e58139"] ;
375 -> 381 ;
382 [label="gini = 0.0\nsamples = 2\nvalue = [0, 2]\nclass = 1", fillcolor="#399de5"] ;
374 -> 382 ;
383 [label="multi_thrpy <= 0.5\ngini = 0.412\nsamples = 742\nvalue = [215, 527]\nclass = 1", fillcolor="#8ac5f0"] ;
255 -> 383 ;
384 [label="tumor_diagnosis <= 29.5\ngini = 0.441\nsamples = 262\nvalue = [86, 176]\nclass = 1", fillcolor="#9acdf2"] ;
383 -> 384 ;
385 [label="tumor_diagnosis <= 17.0\ngini = 0.356\nsamples = 69\nvalue = [16, 53]\nclass = 1", fillcolor="#75bbed"] ;
384 -> 385 ;
386 [label="cry_thrpy <= 0.5\ngini = 0.496\nsamples = 11\nvalue = [5, 6]\nclass = 1", fillcolor="#deeffb"] ;
385 -> 386 ;
387 [label="gleason_grade <= 0.0\ngini = 0.444\nsamples = 9\nvalue = [3, 6]\nclass = 1", fillcolor="#9ccef2"] ;
386 -> 387 ;
388 [label="gini = 0.0\nsamples = 1\nvalue = [1, 0]\nclass = 0", fillcolor="#e58139"] ;
387 -> 388 ;
389 [label="race <= 2.5\ngini = 0.375\nsamples = 8\nvalue = [2, 6]\nclass = 1", fillcolor="#7bbeee"] ;
387 -> 389 ;
390 [label="gini = 0.0\nsamples = 2\nvalue = [0, 2]\nclass = 1", fillcolor="#399de5"] ;
389 -> 390 ;
391 [label="age_group <= 3.5\ngini = 0.444\nsamples = 6\nvalue = [2, 4]\nclass = 1", fillcolor="#9ccef2"] ;
389 -> 391 ;
392 [label="brch_thrpy <= 0.5\ngini = 0.32\nsamples = 5\nvalue = [1, 4]\nclass = 1", fillcolor="#6ab6ec"] ;
391 -> 392 ;
393 [label="gini = 0.0\nsamples = 4\nvalue = [0, 4]\nclass = 1", fillcolor="#399de5"] ;
392 -> 393 ;
394 [label="gini = 0.0\nsamples = 1\nvalue = [1, 0]\nclass = 0", fillcolor="#e58139"] ;
392 -> 394 ;
395 [label="gini = 0.0\nsamples = 1\nvalue = [1, 0]\nclass = 0", fillcolor="#e58139"] ;
391 -> 395 ;
396 [label="gini = 0.0\nsamples = 2\nvalue = [2, 0]\nclass = 0", fillcolor="#e58139"] ;
386 -> 396 ;
397 [label="tumor_diagnosis <= 21.5\ngini = 0.307\nsamples = 58\nvalue = [11, 47]\nclass = 1", fillcolor="#67b4eb"] ;
385 -> 397 ;
398 [label="gini = 0.0\nsamples = 7\nvalue = [0, 7]\nclass = 1", fillcolor="#399de5"] ;
397 -> 398 ;
399 [label="cry_thrpy <= 0.5\ngini = 0.338\nsamples = 51\nvalue = [11, 40]\nclass = 1", fillcolor="#6fb8ec"] ;
397 -> 399 ;
400 [label="tumor_diagnosis <= 25.5\ngini = 0.278\nsamples = 30\nvalue = [5, 25]\nclass = 1", fillcolor="#61b1ea"] ;
399 -> 400 ;
401 [label="tumor_diagnosis <= 24.5\ngini = 0.355\nsamples = 13\nvalue = [3, 10]\nclass = 1", fillcolor="#74baed"] ;
400 -> 401 ;
402 [label="stage <= 1.5\ngini = 0.298\nsamples = 11\nvalue = [2, 9]\nclass = 1", fillcolor="#65b3eb"] ;
401 -> 402 ;
403 [label="tumor_diagnosis <= 23.0\ngini = 0.5\nsamples = 2\nvalue = [1, 1]\nclass = 0", fillcolor="#ffffff"] ;
402 -> 403 ;
404 [label="gini = 0.0\nsamples = 1\nvalue = [1, 0]\nclass = 0", fillcolor="#e58139"] ;
403 -> 404 ;
405 [label="gini = 0.0\nsamples = 1\nvalue = [0, 1]\nclass = 1", fillcolor="#399de5"] ;
403 -> 405 ;
406 [label="race <= 3.0\ngini = 0.198\nsamples = 9\nvalue = [1, 8]\nclass = 1", fillcolor="#52a9e8"] ;
402 -> 406 ;
407 [label="smoker <= -0.5\ngini = 0.5\nsamples = 2\nvalue = [1, 1]\nclass = 0", fillcolor="#ffffff"] ;
406 -> 407 ;
408 [label="gini = 0.0\nsamples = 1\nvalue = [0, 1]\nclass = 1", fillcolor="#399de5"] ;
407 -> 408 ;
409 [label="gini = 0.0\nsamples = 1\nvalue = [1, 0]\nclass = 0", fillcolor="#e58139"] ;
407 -> 409 ;
410 [label="gini = 0.0\nsamples = 7\nvalue = [0, 7]\nclass = 1", fillcolor="#399de5"] ;
406 -> 410 ;
411 [label="first_degree_history <= 0.5\ngini = 0.5\nsamples = 2\nvalue = [1, 1]\nclass = 0", fillcolor="#ffffff"] ;
401 -> 411 ;
412 [label="gini = 0.0\nsamples = 1\nvalue = [0, 1]\nclass = 1", fillcolor="#399de5"] ;
411 -> 412 ;
413 [label="gini = 0.0\nsamples = 1\nvalue = [1, 0]\nclass = 0", fillcolor="#e58139"] ;
411 -> 413 ;
414 [label="age_group <= 3.5\ngini = 0.208\nsamples = 17\nvalue = [2, 15]\nclass = 1", fillcolor="#53aae8"] ;
400 -> 414 ;
415 [label="gini = 0.0\nsamples = 6\nvalue = [0, 6]\nclass = 1", fillcolor="#399de5"] ;
414 -> 415 ;
416 [label="race <= 3.0\ngini = 0.298\nsamples = 11\nvalue = [2, 9]\nclass = 1", fillcolor="#65b3eb"] ;
414 -> 416 ;
417 [label="gini = 0.0\nsamples = 3\nvalue = [0, 3]\nclass = 1", fillcolor="#399de5"] ;
416 -> 417 ;
418 [label="smoker <= -0.5\ngini = 0.375\nsamples = 8\nvalue = [2, 6]\nclass = 1", fillcolor="#7bbeee"] ;
416 -> 418 ;
419 [label="gini = 0.0\nsamples = 2\nvalue = [0, 2]\nclass = 1", fillcolor="#399de5"] ;
418 -> 419 ;
420 [label="rad_rem <= 0.5\ngini = 0.444\nsamples = 6\nvalue = [2, 4]\nclass = 1", fillcolor="#9ccef2"] ;
418 -> 420 ;
421 [label="gleason_grade <= 1.5\ngini = 0.48\nsamples = 5\nvalue = [2, 3]\nclass = 1", fillcolor="#bddef6"] ;
420 -> 421 ;
422 [label="stage <= 2.5\ngini = 0.444\nsamples = 3\nvalue = [1, 2]\nclass = 1", fillcolor="#9ccef2"] ;
421 -> 422 ;
423 [label="gini = 0.0\nsamples = 2\nvalue = [0, 2]\nclass = 1", fillcolor="#399de5"] ;
422 -> 423 ;
424 [label="gini = 0.0\nsamples = 1\nvalue = [1, 0]\nclass = 0", fillcolor="#e58139"] ;
422 -> 424 ;
425 [label="tumor_diagnosis <= 28.0\ngini = 0.5\nsamples = 2\nvalue = [1, 1]\nclass = 0", fillcolor="#ffffff"] ;
421 -> 425 ;
426 [label="gini = 0.0\nsamples = 1\nvalue = [1, 0]\nclass = 0", fillcolor="#e58139"] ;
425 -> 426 ;
427 [label="gini = 0.0\nsamples = 1\nvalue = [0, 1]\nclass = 1", fillcolor="#399de5"] ;
425 -> 427 ;
428 [label="gini = 0.0\nsamples = 1\nvalue = [0, 1]\nclass = 1", fillcolor="#399de5"] ;
420 -> 428 ;
429 [label="gleason_grade <= 0.0\ngini = 0.408\nsamples = 21\nvalue = [6, 15]\nclass = 1", fillcolor="#88c4ef"] ;
399 -> 429 ;
430 [label="gini = 0.0\nsamples = 1\nvalue = [1, 0]\nclass = 0", fillcolor="#e58139"] ;
429 -> 430 ;
431 [label="gleason_grade <= 1.5\ngini = 0.375\nsamples = 20\nvalue = [5, 15]\nclass = 1", fillcolor="#7bbeee"] ;
429 -> 431 ;
432 [label="tumor_diagnosis <= 25.5\ngini = 0.43\nsamples = 16\nvalue = [5, 11]\nclass = 1", fillcolor="#93caf1"] ;
431 -> 432 ;
433 [label="tumor_diagnosis <= 23.5\ngini = 0.245\nsamples = 7\nvalue = [1, 6]\nclass = 1", fillcolor="#5aade9"] ;
432 -> 433 ;
434 [label="age_group <= 3.5\ngini = 0.444\nsamples = 3\nvalue = [1, 2]\nclass = 1", fillcolor="#9ccef2"] ;
433 -> 434 ;
435 [label="stage <= 1.5\ngini = 0.5\nsamples = 2\nvalue = [1, 1]\nclass = 0", fillcolor="#ffffff"] ;
434 -> 435 ;
436 [label="gini = 0.0\nsamples = 1\nvalue = [0, 1]\nclass = 1", fillcolor="#399de5"] ;
435 -> 436 ;
437 [label="gini = 0.0\nsamples = 1\nvalue = [1, 0]\nclass = 0", fillcolor="#e58139"] ;
435 -> 437 ;
438 [label="gini = 0.0\nsamples = 1\nvalue = [0, 1]\nclass = 1", fillcolor="#399de5"] ;
434 -> 438 ;
439 [label="gini = 0.0\nsamples = 4\nvalue = [0, 4]\nclass = 1", fillcolor="#399de5"] ;
433 -> 439 ;
440 [label="age_group <= 3.5\ngini = 0.494\nsamples = 9\nvalue = [4, 5]\nclass = 1", fillcolor="#d7ebfa"] ;
432 -> 440 ;
441 [label="stage <= 1.5\ngini = 0.444\nsamples = 3\nvalue = [1, 2]\nclass = 1", fillcolor="#9ccef2"] ;
440 -> 441 ;
442 [label="gini = 0.0\nsamples = 1\nvalue = [1, 0]\nclass = 0", fillcolor="#e58139"] ;
441 -> 442 ;
443 [label="gini = 0.0\nsamples = 2\nvalue = [0, 2]\nclass = 1", fillcolor="#399de5"] ;
441 -> 443 ;
444 [label="tumor_diagnosis <= 26.5\ngini = 0.5\nsamples = 6\nvalue = [3, 3]\nclass = 0", fillcolor="#ffffff"] ;
440 -> 444 ;
445 [label="gini = 0.0\nsamples = 1\nvalue = [0, 1]\nclass = 1", fillcolor="#399de5"] ;
444 -> 445 ;
446 [label="tumor_diagnosis <= 28.5\ngini = 0.48\nsamples = 5\nvalue = [3, 2]\nclass = 0", fillcolor="#f6d5bd"] ;
444 -> 446 ;
447 [label="gini = 0.0\nsamples = 2\nvalue = [2, 0]\nclass = 0", fillcolor="#e58139"] ;
446 -> 447 ;
448 [label="stage <= 1.5\ngini = 0.444\nsamples = 3\nvalue = [1, 2]\nclass = 1", fillcolor="#9ccef2"] ;
446 -> 448 ;
449 [label="gini = 0.0\nsamples = 1\nvalue = [0, 1]\nclass = 1", fillcolor="#399de5"] ;
448 -> 449 ;
450 [label="gini = 0.5\nsamples = 2\nvalue = [1, 1]\nclass = 0", fillcolor="#ffffff"] ;
448 -> 450 ;
451 [label="gini = 0.0\nsamples = 4\nvalue = [0, 4]\nclass = 1", fillcolor="#399de5"] ;
431 -> 451 ;
452 [label="first_degree_history <= -0.5\ngini = 0.462\nsamples = 193\nvalue = [70, 123]\nclass = 1", fillcolor="#aad5f4"] ;
384 -> 452 ;
453 [label="tumor_diagnosis <= 31.0\ngini = 0.245\nsamples = 14\nvalue = [2, 12]\nclass = 1", fillcolor="#5aade9"] ;
452 -> 453 ;
454 [label="age_group <= 3.5\ngini = 0.5\nsamples = 2\nvalue = [1, 1]\nclass = 0", fillcolor="#ffffff"] ;
453 -> 454 ;
455 [label="gini = 0.0\nsamples = 1\nvalue = [1, 0]\nclass = 0", fillcolor="#e58139"] ;
454 -> 455 ;
456 [label="gini = 0.0\nsamples = 1\nvalue = [0, 1]\nclass = 1", fillcolor="#399de5"] ;
454 -> 456 ;
457 [label="tumor_diagnosis <= 45.0\ngini = 0.153\nsamples = 12\nvalue = [1, 11]\nclass = 1", fillcolor="#4ba6e7"] ;
453 -> 457 ;
458 [label="gini = 0.0\nsamples = 10\nvalue = [0, 10]\nclass = 1", fillcolor="#399de5"] ;
457 -> 458 ;
459 [label="chm_thrpy <= 0.5\ngini = 0.5\nsamples = 2\nvalue = [1, 1]\nclass = 0", fillcolor="#ffffff"] ;
457 -> 459 ;
460 [label="gini = 0.0\nsamples = 1\nvalue = [1, 0]\nclass = 0", fillcolor="#e58139"] ;
459 -> 460 ;
461 [label="gini = 0.0\nsamples = 1\nvalue = [0, 1]\nclass = 1", fillcolor="#399de5"] ;
459 -> 461 ;
462 [label="first_degree_history <= 0.5\ngini = 0.471\nsamples = 179\nvalue = [68, 111]\nclass = 1", fillcolor="#b2d9f5"] ;
452 -> 462 ;
463 [label="tumor_diagnosis <= 37.5\ngini = 0.483\nsamples = 140\nvalue = [57, 83]\nclass = 1", fillcolor="#c1e0f7"] ;
462 -> 463 ;
464 [label="previous_cancer <= 0.5\ngini = 0.499\nsamples = 63\nvalue = [30, 33]\nclass = 1", fillcolor="#edf6fd"] ;
463 -> 464 ;
465 [label="gleason_grade <= 1.5\ngini = 0.5\nsamples = 60\nvalue = [30, 30]\nclass = 0", fillcolor="#ffffff"] ;
464 -> 465 ;
466 [label="tumor_diagnosis <= 34.5\ngini = 0.496\nsamples = 46\nvalue = [25, 21]\nclass = 0", fillcolor="#fbebdf"] ;
465 -> 466 ;
467 [label="rad_rem <= 0.5\ngini = 0.497\nsamples = 26\nvalue = [12, 14]\nclass = 1", fillcolor="#e3f1fb"] ;
466 -> 467 ;
468 [label="tumor_diagnosis <= 32.5\ngini = 0.486\nsamples = 24\nvalue = [10, 14]\nclass = 1", fillcolor="#c6e3f8"] ;
467 -> 468 ;
469 [label="race <= 3.5\ngini = 0.5\nsamples = 18\nvalue = [9, 9]\nclass = 0", fillcolor="#ffffff"] ;
468 -> 469 ;
470 [label="gini = 0.0\nsamples = 2\nvalue = [0, 2]\nclass = 1", fillcolor="#399de5"] ;
469 -> 470 ;
471 [label="tumor_diagnosis <= 31.5\ngini = 0.492\nsamples = 16\nvalue = [9, 7]\nclass = 0", fillcolor="#f9e3d3"] ;
469 -> 471 ;
472 [label="chm_thrpy <= 0.5\ngini = 0.463\nsamples = 11\nvalue = [4, 7]\nclass = 1", fillcolor="#aad5f4"] ;
471 -> 472 ;
473 [label="stage <= 2.5\ngini = 0.5\nsamples = 8\nvalue = [4, 4]\nclass = 0", fillcolor="#ffffff"] ;
472 -> 473 ;
474 [label="stage <= 1.5\ngini = 0.49\nsamples = 7\nvalue = [3, 4]\nclass = 1", fillcolor="#cee6f8"] ;
473 -> 474 ;
475 [label="tumor_diagnosis <= 30.5\ngini = 0.444\nsamples = 3\nvalue = [2, 1]\nclass = 0", fillcolor="#f2c09c"] ;
474 -> 475 ;
476 [label="gini = 0.0\nsamples = 1\nvalue = [0, 1]\nclass = 1", fillcolor="#399de5"] ;
475 -> 476 ;
477 [label="gini = 0.0\nsamples = 2\nvalue = [2, 0]\nclass = 0", fillcolor="#e58139"] ;
475 -> 477 ;
478 [label="tumor_diagnosis <= 30.5\ngini = 0.375\nsamples = 4\nvalue = [1, 3]\nclass = 1", fillcolor="#7bbeee"] ;
474 -> 478 ;
479 [label="gini = 0.0\nsamples = 1\nvalue = [1, 0]\nclass = 0", fillcolor="#e58139"] ;
478 -> 479 ;
480 [label="gini = 0.0\nsamples = 3\nvalue = [0, 3]\nclass = 1", fillcolor="#399de5"] ;
478 -> 480 ;
481 [label="gini = 0.0\nsamples = 1\nvalue = [1, 0]\nclass = 0", fillcolor="#e58139"] ;
473 -> 481 ;
482 [label="gini = 0.0\nsamples = 3\nvalue = [0, 3]\nclass = 1", fillcolor="#399de5"] ;
472 -> 482 ;
483 [label="gini = 0.0\nsamples = 5\nvalue = [5, 0]\nclass = 0", fillcolor="#e58139"] ;
471 -> 483 ;
484 [label="race <= 3.0\ngini = 0.278\nsamples = 6\nvalue = [1, 5]\nclass = 1", fillcolor="#61b1ea"] ;
468 -> 484 ;
485 [label="gini = 0.0\nsamples = 1\nvalue = [1, 0]\nclass = 0", fillcolor="#e58139"] ;
484 -> 485 ;
486 [label="gini = 0.0\nsamples = 5\nvalue = [0, 5]\nclass = 1", fillcolor="#399de5"] ;
484 -> 486 ;
487 [label="gini = 0.0\nsamples = 2\nvalue = [2, 0]\nclass = 0", fillcolor="#e58139"] ;
467 -> 487 ;
488 [label="cry_thrpy <= 0.5\ngini = 0.455\nsamples = 20\nvalue = [13, 7]\nclass = 0", fillcolor="#f3c5a4"] ;
466 -> 488 ;
489 [label="tumor_diagnosis <= 36.5\ngini = 0.484\nsamples = 17\nvalue = [10, 7]\nclass = 0", fillcolor="#f7d9c4"] ;
488 -> 489 ;
490 [label="brch_thrpy <= 0.5\ngini = 0.5\nsamples = 12\nvalue = [6, 6]\nclass = 0", fillcolor="#ffffff"] ;
489 -> 490 ;
491 [label="age_group <= 3.5\ngini = 0.48\nsamples = 10\nvalue = [6, 4]\nclass = 0", fillcolor="#f6d5bd"] ;
490 -> 491 ;
492 [label="tumor_diagnosis <= 35.5\ngini = 0.5\nsamples = 6\nvalue = [3, 3]\nclass = 0", fillcolor="#ffffff"] ;
491 -> 492 ;
493 [label="gini = 0.0\nsamples = 2\nvalue = [0, 2]\nclass = 1", fillcolor="#399de5"] ;
492 -> 493 ;
494 [label="stage <= 2.5\ngini = 0.375\nsamples = 4\nvalue = [3, 1]\nclass = 0", fillcolor="#eeab7b"] ;
492 -> 494 ;
495 [label="gini = 0.0\nsamples = 1\nvalue = [1, 0]\nclass = 0", fillcolor="#e58139"] ;
494 -> 495 ;
496 [label="race <= 3.0\ngini = 0.444\nsamples = 3\nvalue = [2, 1]\nclass = 0", fillcolor="#f2c09c"] ;
494 -> 496 ;
497 [label="gini = 0.0\nsamples = 1\nvalue = [1, 0]\nclass = 0", fillcolor="#e58139"] ;
496 -> 497 ;
498 [label="gini = 0.5\nsamples = 2\nvalue = [1, 1]\nclass = 0", fillcolor="#ffffff"] ;
496 -> 498 ;
499 [label="tumor_diagnosis <= 35.5\ngini = 0.375\nsamples = 4\nvalue = [3, 1]\nclass = 0", fillcolor="#eeab7b"] ;
491 -> 499 ;
500 [label="gini = 0.0\nsamples = 2\nvalue = [2, 0]\nclass = 0", fillcolor="#e58139"] ;
499 -> 500 ;
501 [label="gini = 0.5\nsamples = 2\nvalue = [1, 1]\nclass = 0", fillcolor="#ffffff"] ;
499 -> 501 ;
502 [label="gini = 0.0\nsamples = 2\nvalue = [0, 2]\nclass = 1", fillcolor="#399de5"] ;
490 -> 502 ;
503 [label="stage <= 2.5\ngini = 0.32\nsamples = 5\nvalue = [4, 1]\nclass = 0", fillcolor="#eca06a"] ;
489 -> 503 ;
504 [label="race <= 3.5\ngini = 0.444\nsamples = 3\nvalue = [2, 1]\nclass = 0", fillcolor="#f2c09c"] ;
503 -> 504 ;
505 [label="gini = 0.0\nsamples = 1\nvalue = [1, 0]\nclass = 0", fillcolor="#e58139"] ;
504 -> 505 ;
506 [label="age_group <= 3.5\ngini = 0.5\nsamples = 2\nvalue = [1, 1]\nclass = 0", fillcolor="#ffffff"] ;
504 -> 506 ;
507 [label="gini = 0.0\nsamples = 1\nvalue = [1, 0]\nclass = 0", fillcolor="#e58139"] ;
506 -> 507 ;
508 [label="gini = 0.0\nsamples = 1\nvalue = [0, 1]\nclass = 1", fillcolor="#399de5"] ;
506 -> 508 ;
509 [label="gini = 0.0\nsamples = 2\nvalue = [2, 0]\nclass = 0", fillcolor="#e58139"] ;
503 -> 509 ;
510 [label="gini = 0.0\nsamples = 3\nvalue = [3, 0]\nclass = 0", fillcolor="#e58139"] ;
488 -> 510 ;
511 [label="tumor_diagnosis <= 35.5\ngini = 0.459\nsamples = 14\nvalue = [5, 9]\nclass = 1", fillcolor="#a7d3f3"] ;
465 -> 511 ;
512 [label="cry_thrpy <= 0.5\ngini = 0.5\nsamples = 10\nvalue = [5, 5]\nclass = 0", fillcolor="#ffffff"] ;
511 -> 512 ;
513 [label="tumor_diagnosis <= 33.5\ngini = 0.469\nsamples = 8\nvalue = [3, 5]\nclass = 1", fillcolor="#b0d8f5"] ;
512 -> 513 ;
514 [label="gini = 0.0\nsamples = 1\nvalue = [0, 1]\nclass = 1", fillcolor="#399de5"] ;
513 -> 514 ;
515 [label="brch_thrpy <= 0.5\ngini = 0.49\nsamples = 7\nvalue = [3, 4]\nclass = 1", fillcolor="#cee6f8"] ;
513 -> 515 ;
516 [label="tumor_diagnosis <= 34.5\ngini = 0.444\nsamples = 3\nvalue = [1, 2]\nclass = 1", fillcolor="#9ccef2"] ;
515 -> 516 ;
517 [label="gini = 0.0\nsamples = 1\nvalue = [1, 0]\nclass = 0", fillcolor="#e58139"] ;
516 -> 517 ;
518 [label="gini = 0.0\nsamples = 2\nvalue = [0, 2]\nclass = 1", fillcolor="#399de5"] ;
516 -> 518 ;
519 [label="tumor_diagnosis <= 34.5\ngini = 0.5\nsamples = 4\nvalue = [2, 2]\nclass = 0", fillcolor="#ffffff"] ;
515 -> 519 ;
520 [label="gini = 0.0\nsamples = 2\nvalue = [0, 2]\nclass = 1", fillcolor="#399de5"] ;
519 -> 520 ;
521 [label="gini = 0.0\nsamples = 2\nvalue = [2, 0]\nclass = 0", fillcolor="#e58139"] ;
519 -> 521 ;
522 [label="gini = 0.0\nsamples = 2\nvalue = [2, 0]\nclass = 0", fillcolor="#e58139"] ;
512 -> 522 ;
523 [label="gini = 0.0\nsamples = 4\nvalue = [0, 4]\nclass = 1", fillcolor="#399de5"] ;
511 -> 523 ;
524 [label="gini = 0.0\nsamples = 3\nvalue = [0, 3]\nclass = 1", fillcolor="#399de5"] ;
464 -> 524 ;
525 [label="tumor_diagnosis <= 38.5\ngini = 0.455\nsamples = 77\nvalue = [27, 50]\nclass = 1", fillcolor="#a4d2f3"] ;
463 -> 525 ;
526 [label="gini = 0.0\nsamples = 5\nvalue = [0, 5]\nclass = 1", fillcolor="#399de5"] ;
525 -> 526 ;
527 [label="tumor_diagnosis <= 39.5\ngini = 0.469\nsamples = 72\nvalue = [27, 45]\nclass = 1", fillcolor="#b0d8f5"] ;
525 -> 527 ;
528 [label="brch_thrpy <= 0.5\ngini = 0.444\nsamples = 6\nvalue = [4, 2]\nclass = 0", fillcolor="#f2c09c"] ;
527 -> 528 ;
529 [label="age_group <= 3.5\ngini = 0.444\nsamples = 3\nvalue = [1, 2]\nclass = 1", fillcolor="#9ccef2"] ;
528 -> 529 ;
530 [label="gini = 0.0\nsamples = 2\nvalue = [0, 2]\nclass = 1", fillcolor="#399de5"] ;
529 -> 530 ;
531 [label="gini = 0.0\nsamples = 1\nvalue = [1, 0]\nclass = 0", fillcolor="#e58139"] ;
529 -> 531 ;
532 [label="gini = 0.0\nsamples = 3\nvalue = [3, 0]\nclass = 0", fillcolor="#e58139"] ;
528 -> 532 ;
533 [label="stage <= 1.5\ngini = 0.454\nsamples = 66\nvalue = [23, 43]\nclass = 1", fillcolor="#a3d1f3"] ;
527 -> 533 ;
534 [label="race <= 3.0\ngini = 0.49\nsamples = 7\nvalue = [4, 3]\nclass = 0", fillcolor="#f8e0ce"] ;
533 -> 534 ;
535 [label="gini = 0.0\nsamples = 2\nvalue = [0, 2]\nclass = 1", fillcolor="#399de5"] ;
534 -> 535 ;
536 [label="cry_thrpy <= 0.5\ngini = 0.32\nsamples = 5\nvalue = [4, 1]\nclass = 0", fillcolor="#eca06a"] ;
534 -> 536 ;
537 [label="gini = 0.0\nsamples = 3\nvalue = [3, 0]\nclass = 0", fillcolor="#e58139"] ;
536 -> 537 ;
538 [label="age_group <= 3.5\ngini = 0.5\nsamples = 2\nvalue = [1, 1]\nclass = 0", fillcolor="#ffffff"] ;
536 -> 538 ;
539 [label="gini = 0.0\nsamples = 1\nvalue = [1, 0]\nclass = 0", fillcolor="#e58139"] ;
538 -> 539 ;
540 [label="gini = 0.0\nsamples = 1\nvalue = [0, 1]\nclass = 1", fillcolor="#399de5"] ;
538 -> 540 ;
541 [label="gleason_grade <= 1.5\ngini = 0.437\nsamples = 59\nvalue = [19, 40]\nclass = 1", fillcolor="#97ccf1"] ;
533 -> 541 ;
542 [label="tumor_diagnosis <= 45.5\ngini = 0.388\nsamples = 38\nvalue = [10, 28]\nclass = 1", fillcolor="#80c0ee"] ;
541 -> 542 ;
543 [label="tumor_diagnosis <= 40.5\ngini = 0.463\nsamples = 22\nvalue = [8, 14]\nclass = 1", fillcolor="#aad5f4"] ;
542 -> 543 ;
544 [label="gini = 0.0\nsamples = 4\nvalue = [0, 4]\nclass = 1", fillcolor="#399de5"] ;
543 -> 544 ;
545 [label="age_group <= 3.5\ngini = 0.494\nsamples = 18\nvalue = [8, 10]\nclass = 1", fillcolor="#d7ebfa"] ;
543 -> 545 ;
546 [label="tumor_diagnosis <= 41.5\ngini = 0.42\nsamples = 10\nvalue = [3, 7]\nclass = 1", fillcolor="#8ec7f0"] ;
545 -> 546 ;
547 [label="gini = 0.0\nsamples = 2\nvalue = [0, 2]\nclass = 1", fillcolor="#399de5"] ;
546 -> 547 ;
548 [label="race <= 3.0\ngini = 0.469\nsamples = 8\nvalue = [3, 5]\nclass = 1", fillcolor="#b0d8f5"] ;
546 -> 548 ;
549 [label="gini = 0.0\nsamples = 1\nvalue = [0, 1]\nclass = 1", fillcolor="#399de5"] ;
548 -> 549 ;
550 [label="stage <= 2.5\ngini = 0.49\nsamples = 7\nvalue = [3, 4]\nclass = 1", fillcolor="#cee6f8"] ;
548 -> 550 ;
551 [label="gini = 0.0\nsamples = 1\nvalue = [1, 0]\nclass = 0", fillcolor="#e58139"] ;
550 -> 551 ;
552 [label="tumor_diagnosis <= 44.5\ngini = 0.444\nsamples = 6\nvalue = [2, 4]\nclass = 1", fillcolor="#9ccef2"] ;
550 -> 552 ;
553 [label="tumor_diagnosis <= 42.5\ngini = 0.32\nsamples = 5\nvalue = [1, 4]\nclass = 1", fillcolor="#6ab6ec"] ;
552 -> 553 ;
554 [label="chm_thrpy <= 0.5\ngini = 0.5\nsamples = 2\nvalue = [1, 1]\nclass = 0", fillcolor="#ffffff"] ;
553 -> 554 ;
555 [label="gini = 0.0\nsamples = 1\nvalue = [0, 1]\nclass = 1", fillcolor="#399de5"] ;
554 -> 555 ;
556 [label="gini = 0.0\nsamples = 1\nvalue = [1, 0]\nclass = 0", fillcolor="#e58139"] ;
554 -> 556 ;
557 [label="gini = 0.0\nsamples = 3\nvalue = [0, 3]\nclass = 1", fillcolor="#399de5"] ;
553 -> 557 ;
558 [label="gini = 0.0\nsamples = 1\nvalue = [1, 0]\nclass = 0", fillcolor="#e58139"] ;
552 -> 558 ;
559 [label="tumor_diagnosis <= 44.0\ngini = 0.469\nsamples = 8\nvalue = [5, 3]\nclass = 0", fillcolor="#f5cdb0"] ;
545 -> 559 ;
560 [label="cry_thrpy <= 0.5\ngini = 0.408\nsamples = 7\nvalue = [5, 2]\nclass = 0", fillcolor="#efb388"] ;
559 -> 560 ;
561 [label="tumor_diagnosis <= 42.5\ngini = 0.48\nsamples = 5\nvalue = [3, 2]\nclass = 0", fillcolor="#f6d5bd"] ;
560 -> 561 ;
562 [label="stage <= 2.5\ngini = 0.375\nsamples = 4\nvalue = [3, 1]\nclass = 0", fillcolor="#eeab7b"] ;
561 -> 562 ;
563 [label="race <= 3.0\ngini = 0.5\nsamples = 2\nvalue = [1, 1]\nclass = 0", fillcolor="#ffffff"] ;
562 -> 563 ;
564 [label="gini = 0.0\nsamples = 1\nvalue = [0, 1]\nclass = 1", fillcolor="#399de5"] ;
563 -> 564 ;
565 [label="gini = 0.0\nsamples = 1\nvalue = [1, 0]\nclass = 0", fillcolor="#e58139"] ;
563 -> 565 ;
566 [label="gini = 0.0\nsamples = 2\nvalue = [2, 0]\nclass = 0", fillcolor="#e58139"] ;
562 -> 566 ;
567 [label="gini = 0.0\nsamples = 1\nvalue = [0, 1]\nclass = 1", fillcolor="#399de5"] ;
561 -> 567 ;
568 [label="gini = 0.0\nsamples = 2\nvalue = [2, 0]\nclass = 0", fillcolor="#e58139"] ;
560 -> 568 ;
569 [label="gini = 0.0\nsamples = 1\nvalue = [0, 1]\nclass = 1", fillcolor="#399de5"] ;
559 -> 569 ;
570 [label="brch_thrpy <= 0.5\ngini = 0.219\nsamples = 16\nvalue = [2, 14]\nclass = 1", fillcolor="#55abe9"] ;
542 -> 570 ;
571 [label="gini = 0.0\nsamples = 9\nvalue = [0, 9]\nclass = 1", fillcolor="#399de5"] ;
570 -> 571 ;
572 [label="tumor_diagnosis <= 46.5\ngini = 0.408\nsamples = 7\nvalue = [2, 5]\nclass = 1", fillcolor="#88c4ef"] ;
570 -> 572 ;
573 [label="gini = 0.0\nsamples = 2\nvalue = [0, 2]\nclass = 1", fillcolor="#399de5"] ;
572 -> 573 ;
574 [label="tumor_diagnosis <= 47.5\ngini = 0.48\nsamples = 5\nvalue = [2, 3]\nclass = 1", fillcolor="#bddef6"] ;
572 -> 574 ;
575 [label="gini = 0.0\nsamples = 1\nvalue = [1, 0]\nclass = 0", fillcolor="#e58139"] ;
574 -> 575 ;
576 [label="race <= 3.0\ngini = 0.375\nsamples = 4\nvalue = [1, 3]\nclass = 1", fillcolor="#7bbeee"] ;
574 -> 576 ;
577 [label="gini = 0.5\nsamples = 2\nvalue = [1, 1]\nclass = 0", fillcolor="#ffffff"] ;
576 -> 577 ;
578 [label="gini = 0.0\nsamples = 2\nvalue = [0, 2]\nclass = 1", fillcolor="#399de5"] ;
576 -> 578 ;
579 [label="tumor_diagnosis <= 45.0\ngini = 0.49\nsamples = 21\nvalue = [9, 12]\nclass = 1", fillcolor="#cee6f8"] ;
541 -> 579 ;
580 [label="age_group <= 3.5\ngini = 0.43\nsamples = 16\nvalue = [5, 11]\nclass = 1", fillcolor="#93caf1"] ;
579 -> 580 ;
581 [label="tumor_diagnosis <= 43.5\ngini = 0.245\nsamples = 7\nvalue = [1, 6]\nclass = 1", fillcolor="#5aade9"] ;
580 -> 581 ;
582 [label="gini = 0.0\nsamples = 5\nvalue = [0, 5]\nclass = 1", fillcolor="#399de5"] ;
581 -> 582 ;
583 [label="brch_thrpy <= 0.5\ngini = 0.5\nsamples = 2\nvalue = [1, 1]\nclass = 0", fillcolor="#ffffff"] ;
581 -> 583 ;
584 [label="gini = 0.0\nsamples = 1\nvalue = [0, 1]\nclass = 1", fillcolor="#399de5"] ;
583 -> 584 ;
585 [label="gini = 0.0\nsamples = 1\nvalue = [1, 0]\nclass = 0", fillcolor="#e58139"] ;
583 -> 585 ;
586 [label="tumor_diagnosis <= 41.5\ngini = 0.494\nsamples = 9\nvalue = [4, 5]\nclass = 1", fillcolor="#d7ebfa"] ;
580 -> 586 ;
587 [label="tumor_diagnosis <= 40.5\ngini = 0.444\nsamples = 3\nvalue = [2, 1]\nclass = 0", fillcolor="#f2c09c"] ;
586 -> 587 ;
588 [label="brch_thrpy <= 0.5\ngini = 0.5\nsamples = 2\nvalue = [1, 1]\nclass = 0", fillcolor="#ffffff"] ;
587 -> 588 ;
589 [label="gini = 0.0\nsamples = 1\nvalue = [1, 0]\nclass = 0", fillcolor="#e58139"] ;
588 -> 589 ;
590 [label="gini = 0.0\nsamples = 1\nvalue = [0, 1]\nclass = 1", fillcolor="#399de5"] ;
588 -> 590 ;
591 [label="gini = 0.0\nsamples = 1\nvalue = [1, 0]\nclass = 0", fillcolor="#e58139"] ;
587 -> 591 ;
592 [label="tumor_diagnosis <= 42.5\ngini = 0.444\nsamples = 6\nvalue = [2, 4]\nclass = 1", fillcolor="#9ccef2"] ;
586 -> 592 ;
593 [label="gini = 0.0\nsamples = 2\nvalue = [0, 2]\nclass = 1", fillcolor="#399de5"] ;
592 -> 593 ;
594 [label="stage <= 2.5\ngini = 0.5\nsamples = 4\nvalue = [2, 2]\nclass = 0", fillcolor="#ffffff"] ;
592 -> 594 ;
595 [label="gini = 0.5\nsamples = 2\nvalue = [1, 1]\nclass = 0", fillcolor="#ffffff"] ;
594 -> 595 ;
596 [label="gini = 0.5\nsamples = 2\nvalue = [1, 1]\nclass = 0", fillcolor="#ffffff"] ;
594 -> 596 ;
597 [label="stage <= 2.5\ngini = 0.32\nsamples = 5\nvalue = [4, 1]\nclass = 0", fillcolor="#eca06a"] ;
579 -> 597 ;
598 [label="gini = 0.0\nsamples = 3\nvalue = [3, 0]\nclass = 0", fillcolor="#e58139"] ;
597 -> 598 ;
599 [label="previous_cancer <= 0.5\ngini = 0.5\nsamples = 2\nvalue = [1, 1]\nclass = 0", fillcolor="#ffffff"] ;
597 -> 599 ;
600 [label="gini = 0.0\nsamples = 1\nvalue = [0, 1]\nclass = 1", fillcolor="#399de5"] ;
599 -> 600 ;
601 [label="gini = 0.0\nsamples = 1\nvalue = [1, 0]\nclass = 0", fillcolor="#e58139"] ;
599 -> 601 ;
602 [label="tumor_diagnosis <= 39.5\ngini = 0.405\nsamples = 39\nvalue = [11, 28]\nclass = 1", fillcolor="#87c4ef"] ;
462 -> 602 ;
603 [label="brch_thrpy <= 0.5\ngini = 0.208\nsamples = 17\nvalue = [2, 15]\nclass = 1", fillcolor="#53aae8"] ;
602 -> 603 ;
604 [label="gini = 0.0\nsamples = 11\nvalue = [0, 11]\nclass = 1", fillcolor="#399de5"] ;
603 -> 604 ;
605 [label="gleason_grade <= 1.5\ngini = 0.444\nsamples = 6\nvalue = [2, 4]\nclass = 1", fillcolor="#9ccef2"] ;
603 -> 605 ;
606 [label="age_group <= 3.5\ngini = 0.32\nsamples = 5\nvalue = [1, 4]\nclass = 1", fillcolor="#6ab6ec"] ;
605 -> 606 ;
607 [label="first_degree_history <= 1.5\ngini = 0.5\nsamples = 2\nvalue = [1, 1]\nclass = 0", fillcolor="#ffffff"] ;
606 -> 607 ;
608 [label="gini = 0.0\nsamples = 1\nvalue = [1, 0]\nclass = 0", fillcolor="#e58139"] ;
607 -> 608 ;
609 [label="gini = 0.0\nsamples = 1\nvalue = [0, 1]\nclass = 1", fillcolor="#399de5"] ;
607 -> 609 ;
610 [label="gini = 0.0\nsamples = 3\nvalue = [0, 3]\nclass = 1", fillcolor="#399de5"] ;
606 -> 610 ;
611 [label="gini = 0.0\nsamples = 1\nvalue = [1, 0]\nclass = 0", fillcolor="#e58139"] ;
605 -> 611 ;
612 [label="tumor_diagnosis <= 47.5\ngini = 0.483\nsamples = 22\nvalue = [9, 13]\nclass = 1", fillcolor="#c2e1f7"] ;
602 -> 612 ;
613 [label="tumor_diagnosis <= 44.5\ngini = 0.472\nsamples = 21\nvalue = [8, 13]\nclass = 1", fillcolor="#b3d9f5"] ;
612 -> 613 ;
614 [label="age_group <= 3.5\ngini = 0.5\nsamples = 14\nvalue = [7, 7]\nclass = 0", fillcolor="#ffffff"] ;
613 -> 614 ;
615 [label="race <= 3.5\ngini = 0.444\nsamples = 6\nvalue = [4, 2]\nclass = 0", fillcolor="#f2c09c"] ;
614 -> 615 ;
616 [label="gini = 0.0\nsamples = 2\nvalue = [0, 2]\nclass = 1", fillcolor="#399de5"] ;
615 -> 616 ;
617 [label="gini = 0.0\nsamples = 4\nvalue = [4, 0]\nclass = 0", fillcolor="#e58139"] ;
615 -> 617 ;
618 [label="stage <= 2.5\ngini = 0.469\nsamples = 8\nvalue = [3, 5]\nclass = 1", fillcolor="#b0d8f5"] ;
614 -> 618 ;
619 [label="gini = 0.0\nsamples = 3\nvalue = [0, 3]\nclass = 1", fillcolor="#399de5"] ;
618 -> 619 ;
620 [label="tumor_diagnosis <= 41.5\ngini = 0.48\nsamples = 5\nvalue = [3, 2]\nclass = 0", fillcolor="#f6d5bd"] ;
618 -> 620 ;
621 [label="gini = 0.0\nsamples = 1\nvalue = [0, 1]\nclass = 1", fillcolor="#399de5"] ;
620 -> 621 ;
622 [label="gleason_grade <= 1.5\ngini = 0.375\nsamples = 4\nvalue = [3, 1]\nclass = 0", fillcolor="#eeab7b"] ;
620 -> 622 ;
623 [label="gini = 0.0\nsamples = 3\nvalue = [3, 0]\nclass = 0", fillcolor="#e58139"] ;
622 -> 623 ;
624 [label="gini = 0.0\nsamples = 1\nvalue = [0, 1]\nclass = 1", fillcolor="#399de5"] ;
622 -> 624 ;
625 [label="race <= 3.0\ngini = 0.245\nsamples = 7\nvalue = [1, 6]\nclass = 1", fillcolor="#5aade9"] ;
613 -> 625 ;
626 [label="brch_thrpy <= 0.5\ngini = 0.444\nsamples = 3\nvalue = [1, 2]\nclass = 1", fillcolor="#9ccef2"] ;
625 -> 626 ;
627 [label="tumor_diagnosis <= 45.5\ngini = 0.5\nsamples = 2\nvalue = [1, 1]\nclass = 0", fillcolor="#ffffff"] ;
626 -> 627 ;
628 [label="gini = 0.0\nsamples = 1\nvalue = [0, 1]\nclass = 1", fillcolor="#399de5"] ;
627 -> 628 ;
629 [label="gini = 0.0\nsamples = 1\nvalue = [1, 0]\nclass = 0", fillcolor="#e58139"] ;
627 -> 629 ;
630 [label="gini = 0.0\nsamples = 1\nvalue = [0, 1]\nclass = 1", fillcolor="#399de5"] ;
626 -> 630 ;
631 [label="gini = 0.0\nsamples = 4\nvalue = [0, 4]\nclass = 1", fillcolor="#399de5"] ;
625 -> 631 ;
632 [label="gini = 0.0\nsamples = 1\nvalue = [1, 0]\nclass = 0", fillcolor="#e58139"] ;
612 -> 632 ;
633 [label="tumor_diagnosis <= 37.5\ngini = 0.393\nsamples = 480\nvalue = [129, 351]\nclass = 1", fillcolor="#82c1ef"] ;
383 -> 633 ;
634 [label="brch_thrpy <= 0.5\ngini = 0.429\nsamples = 254\nvalue = [79, 175]\nclass = 1", fillcolor="#92c9f1"] ;
633 -> 634 ;
635 [label="tumor_diagnosis <= 32.5\ngini = 0.368\nsamples = 115\nvalue = [28, 87]\nclass = 1", fillcolor="#79bded"] ;
634 -> 635 ;
636 [label="rd_thrpy <= 0.5\ngini = 0.305\nsamples = 64\nvalue = [12, 52]\nclass = 1", fillcolor="#67b4eb"] ;
635 -> 636 ;
637 [label="stage <= 2.5\ngini = 0.417\nsamples = 27\nvalue = [8, 19]\nclass = 1", fillcolor="#8cc6f0"] ;
636 -> 637 ;
638 [label="first_degree_history <= 0.5\ngini = 0.34\nsamples = 23\nvalue = [5, 18]\nclass = 1", fillcolor="#70b8ec"] ;
637 -> 638 ;
639 [label="tumor_diagnosis <= 19.0\ngini = 0.266\nsamples = 19\nvalue = [3, 16]\nclass = 1", fillcolor="#5eafea"] ;
638 -> 639 ;
640 [label="rad_rem <= 0.5\ngini = 0.5\nsamples = 4\nvalue = [2, 2]\nclass = 0", fillcolor="#ffffff"] ;
639 -> 640 ;
641 [label="gini = 0.0\nsamples = 2\nvalue = [2, 0]\nclass = 0", fillcolor="#e58139"] ;
640 -> 641 ;
642 [label="gini = 0.0\nsamples = 2\nvalue = [0, 2]\nclass = 1", fillcolor="#399de5"] ;
640 -> 642 ;
643 [label="race <= 3.5\ngini = 0.124\nsamples = 15\nvalue = [1, 14]\nclass = 1", fillcolor="#47a4e7"] ;
639 -> 643 ;
644 [label="tumor_diagnosis <= 28.0\ngini = 0.5\nsamples = 2\nvalue = [1, 1]\nclass = 0", fillcolor="#ffffff"] ;
643 -> 644 ;
645 [label="gini = 0.0\nsamples = 1\nvalue = [1, 0]\nclass = 0", fillcolor="#e58139"] ;
644 -> 645 ;
646 [label="gini = 0.0\nsamples = 1\nvalue = [0, 1]\nclass = 1", fillcolor="#399de5"] ;
644 -> 646 ;
647 [label="gini = 0.0\nsamples = 13\nvalue = [0, 13]\nclass = 1", fillcolor="#399de5"] ;
643 -> 647 ;
648 [label="age_group <= 3.5\ngini = 0.5\nsamples = 4\nvalue = [2, 2]\nclass = 0", fillcolor="#ffffff"] ;
638 -> 648 ;
649 [label="gini = 0.0\nsamples = 2\nvalue = [0, 2]\nclass = 1", fillcolor="#399de5"] ;
648 -> 649 ;
650 [label="gini = 0.0\nsamples = 2\nvalue = [2, 0]\nclass = 0", fillcolor="#e58139"] ;
648 -> 650 ;
651 [label="rad_rem <= 0.5\ngini = 0.375\nsamples = 4\nvalue = [3, 1]\nclass = 0", fillcolor="#eeab7b"] ;
637 -> 651 ;
652 [label="gini = 0.0\nsamples = 2\nvalue = [2, 0]\nclass = 0", fillcolor="#e58139"] ;
651 -> 652 ;
653 [label="first_degree_history <= -0.5\ngini = 0.5\nsamples = 2\nvalue = [1, 1]\nclass = 0", fillcolor="#ffffff"] ;
651 -> 653 ;
654 [label="gini = 0.0\nsamples = 1\nvalue = [1, 0]\nclass = 0", fillcolor="#e58139"] ;
653 -> 654 ;
655 [label="gini = 0.0\nsamples = 1\nvalue = [0, 1]\nclass = 1", fillcolor="#399de5"] ;
653 -> 655 ;
656 [label="tumor_diagnosis <= 24.5\ngini = 0.193\nsamples = 37\nvalue = [4, 33]\nclass = 1", fillcolor="#51a9e8"] ;
636 -> 656 ;
657 [label="gini = 0.0\nsamples = 9\nvalue = [0, 9]\nclass = 1", fillcolor="#399de5"] ;
656 -> 657 ;
658 [label="tumor_diagnosis <= 25.5\ngini = 0.245\nsamples = 28\nvalue = [4, 24]\nclass = 1", fillcolor="#5aade9"] ;
656 -> 658 ;
659 [label="gini = 0.0\nsamples = 1\nvalue = [1, 0]\nclass = 0", fillcolor="#e58139"] ;
658 -> 659 ;
660 [label="tumor_diagnosis <= 27.5\ngini = 0.198\nsamples = 27\nvalue = [3, 24]\nclass = 1", fillcolor="#52a9e8"] ;
658 -> 660 ;
661 [label="gini = 0.0\nsamples = 9\nvalue = [0, 9]\nclass = 1", fillcolor="#399de5"] ;
660 -> 661 ;
662 [label="tumor_diagnosis <= 29.5\ngini = 0.278\nsamples = 18\nvalue = [3, 15]\nclass = 1", fillcolor="#61b1ea"] ;
660 -> 662 ;
663 [label="age_group <= 3.5\ngini = 0.444\nsamples = 9\nvalue = [3, 6]\nclass = 1", fillcolor="#9ccef2"] ;
662 -> 663 ;
664 [label="chm_thrpy <= 0.5\ngini = 0.278\nsamples = 6\nvalue = [1, 5]\nclass = 1", fillcolor="#61b1ea"] ;
663 -> 664 ;
665 [label="gini = 0.0\nsamples = 4\nvalue = [0, 4]\nclass = 1", fillcolor="#399de5"] ;
664 -> 665 ;
666 [label="tumor_diagnosis <= 28.5\ngini = 0.5\nsamples = 2\nvalue = [1, 1]\nclass = 0", fillcolor="#ffffff"] ;
664 -> 666 ;
667 [label="gini = 0.0\nsamples = 1\nvalue = [0, 1]\nclass = 1", fillcolor="#399de5"] ;
666 -> 667 ;
668 [label="gini = 0.0\nsamples = 1\nvalue = [1, 0]\nclass = 0", fillcolor="#e58139"] ;
666 -> 668 ;
669 [label="tumor_diagnosis <= 28.5\ngini = 0.444\nsamples = 3\nvalue = [2, 1]\nclass = 0", fillcolor="#f2c09c"] ;
663 -> 669 ;
670 [label="chm_thrpy <= 0.5\ngini = 0.5\nsamples = 2\nvalue = [1, 1]\nclass = 0", fillcolor="#ffffff"] ;
669 -> 670 ;
671 [label="gini = 0.0\nsamples = 1\nvalue = [0, 1]\nclass = 1", fillcolor="#399de5"] ;
670 -> 671 ;
672 [label="gini = 0.0\nsamples = 1\nvalue = [1, 0]\nclass = 0", fillcolor="#e58139"] ;
670 -> 672 ;
673 [label="gini = 0.0\nsamples = 1\nvalue = [1, 0]\nclass = 0", fillcolor="#e58139"] ;
669 -> 673 ;
674 [label="gini = 0.0\nsamples = 9\nvalue = [0, 9]\nclass = 1", fillcolor="#399de5"] ;
662 -> 674 ;
675 [label="age_group <= 3.5\ngini = 0.431\nsamples = 51\nvalue = [16, 35]\nclass = 1", fillcolor="#94caf1"] ;
635 -> 675 ;
676 [label="race <= 2.5\ngini = 0.484\nsamples = 17\nvalue = [10, 7]\nclass = 0", fillcolor="#f7d9c4"] ;
675 -> 676 ;
677 [label="chm_thrpy <= 0.5\ngini = 0.32\nsamples = 5\nvalue = [1, 4]\nclass = 1", fillcolor="#6ab6ec"] ;
676 -> 677 ;
678 [label="gini = 0.0\nsamples = 1\nvalue = [1, 0]\nclass = 0", fillcolor="#e58139"] ;
677 -> 678 ;
679 [label="gini = 0.0\nsamples = 4\nvalue = [0, 4]\nclass = 1", fillcolor="#399de5"] ;
677 -> 679 ;
680 [label="chm_thrpy <= 0.5\ngini = 0.375\nsamples = 12\nvalue = [9, 3]\nclass = 0", fillcolor="#eeab7b"] ;
676 -> 680 ;
681 [label="gini = 0.0\nsamples = 1\nvalue = [0, 1]\nclass = 1", fillcolor="#399de5"] ;
680 -> 681 ;
682 [label="stage <= 1.5\ngini = 0.298\nsamples = 11\nvalue = [9, 2]\nclass = 0", fillcolor="#eb9d65"] ;
680 -> 682 ;
683 [label="gini = 0.0\nsamples = 1\nvalue = [0, 1]\nclass = 1", fillcolor="#399de5"] ;
682 -> 683 ;
684 [label="rad_rem <= 0.5\ngini = 0.18\nsamples = 10\nvalue = [9, 1]\nclass = 0", fillcolor="#e88f4f"] ;
682 -> 684 ;
685 [label="gini = 0.0\nsamples = 7\nvalue = [7, 0]\nclass = 0", fillcolor="#e58139"] ;
684 -> 685 ;
686 [label="tumor_diagnosis <= 33.5\ngini = 0.444\nsamples = 3\nvalue = [2, 1]\nclass = 0", fillcolor="#f2c09c"] ;
684 -> 686 ;
687 [label="gini = 0.0\nsamples = 1\nvalue = [0, 1]\nclass = 1", fillcolor="#399de5"] ;
686 -> 687 ;
688 [label="gini = 0.0\nsamples = 2\nvalue = [2, 0]\nclass = 0", fillcolor="#e58139"] ;
686 -> 688 ;
689 [label="rd_thrpy <= 0.5\ngini = 0.291\nsamples = 34\nvalue = [6, 28]\nclass = 1", fillcolor="#63b2eb"] ;
675 -> 689 ;
690 [label="gleason_grade <= 0.0\ngini = 0.124\nsamples = 15\nvalue = [1, 14]\nclass = 1", fillcolor="#47a4e7"] ;
689 -> 690 ;
691 [label="chm_thrpy <= 0.5\ngini = 0.444\nsamples = 3\nvalue = [1, 2]\nclass = 1", fillcolor="#9ccef2"] ;
690 -> 691 ;
692 [label="gini = 0.0\nsamples = 1\nvalue = [1, 0]\nclass = 0", fillcolor="#e58139"] ;
691 -> 692 ;
693 [label="gini = 0.0\nsamples = 2\nvalue = [0, 2]\nclass = 1", fillcolor="#399de5"] ;
691 -> 693 ;
694 [label="gini = 0.0\nsamples = 12\nvalue = [0, 12]\nclass = 1", fillcolor="#399de5"] ;
690 -> 694 ;
695 [label="race <= 3.5\ngini = 0.388\nsamples = 19\nvalue = [5, 14]\nclass = 1", fillcolor="#80c0ee"] ;
689 -> 695 ;
696 [label="gini = 0.0\nsamples = 4\nvalue = [0, 4]\nclass = 1", fillcolor="#399de5"] ;
695 -> 696 ;
697 [label="stage <= 1.5\ngini = 0.444\nsamples = 15\nvalue = [5, 10]\nclass = 1", fillcolor="#9ccef2"] ;
695 -> 697 ;
698 [label="gini = 0.0\nsamples = 2\nvalue = [2, 0]\nclass = 0", fillcolor="#e58139"] ;
697 -> 698 ;
699 [label="gleason_grade <= 1.5\ngini = 0.355\nsamples = 13\nvalue = [3, 10]\nclass = 1", fillcolor="#74baed"] ;
697 -> 699 ;
700 [label="gini = 0.0\nsamples = 7\nvalue = [0, 7]\nclass = 1", fillcolor="#399de5"] ;
699 -> 700 ;
701 [label="cry_thrpy <= 0.5\ngini = 0.5\nsamples = 6\nvalue = [3, 3]\nclass = 0", fillcolor="#ffffff"] ;
699 -> 701 ;
702 [label="tumor_diagnosis <= 33.5\ngini = 0.375\nsamples = 4\nvalue = [1, 3]\nclass = 1", fillcolor="#7bbeee"] ;
701 -> 702 ;
703 [label="gini = 0.0\nsamples = 2\nvalue = [0, 2]\nclass = 1", fillcolor="#399de5"] ;
702 -> 703 ;
704 [label="tumor_diagnosis <= 34.5\ngini = 0.5\nsamples = 2\nvalue = [1, 1]\nclass = 0", fillcolor="#ffffff"] ;
702 -> 704 ;
705 [label="gini = 0.0\nsamples = 1\nvalue = [1, 0]\nclass = 0", fillcolor="#e58139"] ;
704 -> 705 ;
706 [label="gini = 0.0\nsamples = 1\nvalue = [0, 1]\nclass = 1", fillcolor="#399de5"] ;
704 -> 706 ;
707 [label="gini = 0.0\nsamples = 2\nvalue = [2, 0]\nclass = 0", fillcolor="#e58139"] ;
701 -> 707 ;
708 [label="tumor_diagnosis <= 24.5\ngini = 0.465\nsamples = 139\nvalue = [51, 88]\nclass = 1", fillcolor="#acd6f4"] ;
634 -> 708 ;
709 [label="tumor_diagnosis <= 17.0\ngini = 0.355\nsamples = 26\nvalue = [6, 20]\nclass = 1", fillcolor="#74baed"] ;
708 -> 709 ;
710 [label="first_degree_history <= -0.5\ngini = 0.444\nsamples = 6\nvalue = [4, 2]\nclass = 0", fillcolor="#f2c09c"] ;
709 -> 710 ;
711 [label="gini = 0.0\nsamples = 3\nvalue = [3, 0]\nclass = 0", fillcolor="#e58139"] ;
710 -> 711 ;
712 [label="previous_cancer <= 0.5\ngini = 0.444\nsamples = 3\nvalue = [1, 2]\nclass = 1", fillcolor="#9ccef2"] ;
710 -> 712 ;
713 [label="gini = 0.0\nsamples = 2\nvalue = [0, 2]\nclass = 1", fillcolor="#399de5"] ;
712 -> 713 ;
714 [label="gini = 0.0\nsamples = 1\nvalue = [1, 0]\nclass = 0", fillcolor="#e58139"] ;
712 -> 714 ;
715 [label="previous_cancer <= 0.5\ngini = 0.18\nsamples = 20\nvalue = [2, 18]\nclass = 1", fillcolor="#4fa8e8"] ;
709 -> 715 ;
716 [label="race <= 2.5\ngini = 0.105\nsamples = 18\nvalue = [1, 17]\nclass = 1", fillcolor="#45a3e7"] ;
715 -> 716 ;
717 [label="rd_thrpy <= 0.5\ngini = 0.375\nsamples = 4\nvalue = [1, 3]\nclass = 1", fillcolor="#7bbeee"] ;
716 -> 717 ;
718 [label="gini = 0.0\nsamples = 2\nvalue = [0, 2]\nclass = 1", fillcolor="#399de5"] ;
717 -> 718 ;
719 [label="tumor_diagnosis <= 22.5\ngini = 0.5\nsamples = 2\nvalue = [1, 1]\nclass = 0", fillcolor="#ffffff"] ;
717 -> 719 ;
720 [label="gini = 0.0\nsamples = 1\nvalue = [1, 0]\nclass = 0", fillcolor="#e58139"] ;
719 -> 720 ;
721 [label="gini = 0.0\nsamples = 1\nvalue = [0, 1]\nclass = 1", fillcolor="#399de5"] ;
719 -> 721 ;
722 [label="gini = 0.0\nsamples = 14\nvalue = [0, 14]\nclass = 1", fillcolor="#399de5"] ;
716 -> 722 ;
723 [label="chm_thrpy <= 0.5\ngini = 0.5\nsamples = 2\nvalue = [1, 1]\nclass = 0", fillcolor="#ffffff"] ;
715 -> 723 ;
724 [label="gini = 0.0\nsamples = 1\nvalue = [1, 0]\nclass = 0", fillcolor="#e58139"] ;
723 -> 724 ;
725 [label="gini = 0.0\nsamples = 1\nvalue = [0, 1]\nclass = 1", fillcolor="#399de5"] ;
723 -> 725 ;
726 [label="tumor_diagnosis <= 31.5\ngini = 0.479\nsamples = 113\nvalue = [45, 68]\nclass = 1", fillcolor="#bcdef6"] ;
708 -> 726 ;
727 [label="tumor_diagnosis <= 30.5\ngini = 0.5\nsamples = 47\nvalue = [23, 24]\nclass = 1", fillcolor="#f7fbfe"] ;
726 -> 727 ;
728 [label="smoker <= -0.5\ngini = 0.492\nsamples = 39\nvalue = [17, 22]\nclass = 1", fillcolor="#d2e9f9"] ;
727 -> 728 ;
729 [label="tumor_diagnosis <= 27.5\ngini = 0.375\nsamples = 4\nvalue = [3, 1]\nclass = 0", fillcolor="#eeab7b"] ;
728 -> 729 ;
730 [label="gini = 0.0\nsamples = 2\nvalue = [2, 0]\nclass = 0", fillcolor="#e58139"] ;
729 -> 730 ;
731 [label="tumor_diagnosis <= 29.0\ngini = 0.5\nsamples = 2\nvalue = [1, 1]\nclass = 0", fillcolor="#ffffff"] ;
729 -> 731 ;
732 [label="gini = 0.0\nsamples = 1\nvalue = [0, 1]\nclass = 1", fillcolor="#399de5"] ;
731 -> 732 ;
733 [label="gini = 0.0\nsamples = 1\nvalue = [1, 0]\nclass = 0", fillcolor="#e58139"] ;
731 -> 733 ;
734 [label="age_group <= 3.5\ngini = 0.48\nsamples = 35\nvalue = [14, 21]\nclass = 1", fillcolor="#bddef6"] ;
728 -> 734 ;
735 [label="tumor_diagnosis <= 26.5\ngini = 0.245\nsamples = 7\nvalue = [1, 6]\nclass = 1", fillcolor="#5aade9"] ;
734 -> 735 ;
736 [label="tumor_diagnosis <= 25.5\ngini = 0.5\nsamples = 2\nvalue = [1, 1]\nclass = 0", fillcolor="#ffffff"] ;
735 -> 736 ;
737 [label="gini = 0.0\nsamples = 1\nvalue = [0, 1]\nclass = 1", fillcolor="#399de5"] ;
736 -> 737 ;
738 [label="gini = 0.0\nsamples = 1\nvalue = [1, 0]\nclass = 0", fillcolor="#e58139"] ;
736 -> 738 ;
739 [label="gini = 0.0\nsamples = 5\nvalue = [0, 5]\nclass = 1", fillcolor="#399de5"] ;
735 -> 739 ;
740 [label="tumor_diagnosis <= 27.5\ngini = 0.497\nsamples = 28\nvalue = [13, 15]\nclass = 1", fillcolor="#e5f2fc"] ;
734 -> 740 ;
741 [label="rad_rem <= 0.5\ngini = 0.278\nsamples = 6\nvalue = [1, 5]\nclass = 1", fillcolor="#61b1ea"] ;
740 -> 741 ;
742 [label="gini = 0.0\nsamples = 5\nvalue = [0, 5]\nclass = 1", fillcolor="#399de5"] ;
741 -> 742 ;
743 [label="gini = 0.0\nsamples = 1\nvalue = [1, 0]\nclass = 0", fillcolor="#e58139"] ;
741 -> 743 ;
744 [label="stage <= 1.5\ngini = 0.496\nsamples = 22\nvalue = [12, 10]\nclass = 0", fillcolor="#fbeade"] ;
740 -> 744 ;
745 [label="tumor_diagnosis <= 28.5\ngini = 0.32\nsamples = 5\nvalue = [1, 4]\nclass = 1", fillcolor="#6ab6ec"] ;
744 -> 745 ;
746 [label="cry_thrpy <= 0.5\ngini = 0.5\nsamples = 2\nvalue = [1, 1]\nclass = 0", fillcolor="#ffffff"] ;
745 -> 746 ;
747 [label="gini = 0.0\nsamples = 1\nvalue = [1, 0]\nclass = 0", fillcolor="#e58139"] ;
746 -> 747 ;
748 [label="gini = 0.0\nsamples = 1\nvalue = [0, 1]\nclass = 1", fillcolor="#399de5"] ;
746 -> 748 ;
749 [label="gini = 0.0\nsamples = 3\nvalue = [0, 3]\nclass = 1", fillcolor="#399de5"] ;
745 -> 749 ;
750 [label="rd_thrpy <= 0.5\ngini = 0.457\nsamples = 17\nvalue = [11, 6]\nclass = 0", fillcolor="#f3c6a5"] ;
744 -> 750 ;
751 [label="tumor_diagnosis <= 28.5\ngini = 0.497\nsamples = 13\nvalue = [7, 6]\nclass = 0", fillcolor="#fbede3"] ;
750 -> 751 ;
752 [label="rad_rem <= 0.5\ngini = 0.32\nsamples = 5\nvalue = [4, 1]\nclass = 0", fillcolor="#eca06a"] ;
751 -> 752 ;
753 [label="gini = 0.0\nsamples = 2\nvalue = [2, 0]\nclass = 0", fillcolor="#e58139"] ;
752 -> 753 ;
754 [label="cry_thrpy <= 0.5\ngini = 0.444\nsamples = 3\nvalue = [2, 1]\nclass = 0", fillcolor="#f2c09c"] ;
752 -> 754 ;
755 [label="gini = 0.5\nsamples = 2\nvalue = [1, 1]\nclass = 0", fillcolor="#ffffff"] ;
754 -> 755 ;
756 [label="gini = 0.0\nsamples = 1\nvalue = [1, 0]\nclass = 0", fillcolor="#e58139"] ;
754 -> 756 ;
757 [label="rad_rem <= 0.5\ngini = 0.469\nsamples = 8\nvalue = [3, 5]\nclass = 1", fillcolor="#b0d8f5"] ;
751 -> 757 ;
758 [label="first_degree_history <= 0.5\ngini = 0.5\nsamples = 6\nvalue = [3, 3]\nclass = 0", fillcolor="#ffffff"] ;
757 -> 758 ;
759 [label="gleason_grade <= 1.5\ngini = 0.48\nsamples = 5\nvalue = [3, 2]\nclass = 0", fillcolor="#f6d5bd"] ;
758 -> 759 ;
760 [label="tumor_diagnosis <= 29.5\ngini = 0.5\nsamples = 4\nvalue = [2, 2]\nclass = 0", fillcolor="#ffffff"] ;
759 -> 760 ;
761 [label="gini = 0.5\nsamples = 2\nvalue = [1, 1]\nclass = 0", fillcolor="#ffffff"] ;
760 -> 761 ;
762 [label="gini = 0.5\nsamples = 2\nvalue = [1, 1]\nclass = 0", fillcolor="#ffffff"] ;
760 -> 762 ;
763 [label="gini = 0.0\nsamples = 1\nvalue = [1, 0]\nclass = 0", fillcolor="#e58139"] ;
759 -> 763 ;
764 [label="gini = 0.0\nsamples = 1\nvalue = [0, 1]\nclass = 1", fillcolor="#399de5"] ;
758 -> 764 ;
765 [label="gini = 0.0\nsamples = 2\nvalue = [0, 2]\nclass = 1", fillcolor="#399de5"] ;
757 -> 765 ;
766 [label="gini = 0.0\nsamples = 4\nvalue = [4, 0]\nclass = 0", fillcolor="#e58139"] ;
750 -> 766 ;
767 [label="stage <= 1.5\ngini = 0.375\nsamples = 8\nvalue = [6, 2]\nclass = 0", fillcolor="#eeab7b"] ;
727 -> 767 ;
768 [label="gini = 0.0\nsamples = 1\nvalue = [0, 1]\nclass = 1", fillcolor="#399de5"] ;
767 -> 768 ;
769 [label="rd_thrpy <= 0.5\ngini = 0.245\nsamples = 7\nvalue = [6, 1]\nclass = 0", fillcolor="#e9965a"] ;
767 -> 769 ;
770 [label="gini = 0.0\nsamples = 3\nvalue = [3, 0]\nclass = 0", fillcolor="#e58139"] ;
769 -> 770 ;
771 [label="race <= 3.5\ngini = 0.375\nsamples = 4\nvalue = [3, 1]\nclass = 0", fillcolor="#eeab7b"] ;
769 -> 771 ;
772 [label="gini = 0.0\nsamples = 2\nvalue = [2, 0]\nclass = 0", fillcolor="#e58139"] ;
771 -> 772 ;
773 [label="first_degree_history <= 0.5\ngini = 0.5\nsamples = 2\nvalue = [1, 1]\nclass = 0", fillcolor="#ffffff"] ;
771 -> 773 ;
774 [label="gini = 0.0\nsamples = 1\nvalue = [0, 1]\nclass = 1", fillcolor="#399de5"] ;
773 -> 774 ;
775 [label="gini = 0.0\nsamples = 1\nvalue = [1, 0]\nclass = 0", fillcolor="#e58139"] ;
773 -> 775 ;
776 [label="first_degree_history <= -0.5\ngini = 0.444\nsamples = 66\nvalue = [22, 44]\nclass = 1", fillcolor="#9ccef2"] ;
726 -> 776 ;
777 [label="gleason_grade <= 1.5\ngini = 0.18\nsamples = 10\nvalue = [1, 9]\nclass = 1", fillcolor="#4fa8e8"] ;
776 -> 777 ;
778 [label="gini = 0.0\nsamples = 7\nvalue = [0, 7]\nclass = 1", fillcolor="#399de5"] ;
777 -> 778 ;
779 [label="rd_thrpy <= 0.5\ngini = 0.444\nsamples = 3\nvalue = [1, 2]\nclass = 1", fillcolor="#9ccef2"] ;
777 -> 779 ;
780 [label="gini = 0.0\nsamples = 2\nvalue = [0, 2]\nclass = 1", fillcolor="#399de5"] ;
779 -> 780 ;
781 [label="gini = 0.0\nsamples = 1\nvalue = [1, 0]\nclass = 0", fillcolor="#e58139"] ;
779 -> 781 ;
782 [label="age_group <= 3.5\ngini = 0.469\nsamples = 56\nvalue = [21, 35]\nclass = 1", fillcolor="#b0d8f5"] ;
776 -> 782 ;
783 [label="stage <= 2.5\ngini = 0.32\nsamples = 20\nvalue = [4, 16]\nclass = 1", fillcolor="#6ab6ec"] ;
782 -> 783 ;
784 [label="tumor_diagnosis <= 32.5\ngini = 0.219\nsamples = 16\nvalue = [2, 14]\nclass = 1", fillcolor="#55abe9"] ;
783 -> 784 ;
785 [label="gini = 0.0\nsamples = 1\nvalue = [1, 0]\nclass = 0", fillcolor="#e58139"] ;
784 -> 785 ;
786 [label="chm_thrpy <= 0.5\ngini = 0.124\nsamples = 15\nvalue = [1, 14]\nclass = 1", fillcolor="#47a4e7"] ;
784 -> 786 ;
787 [label="tumor_diagnosis <= 34.5\ngini = 0.375\nsamples = 4\nvalue = [1, 3]\nclass = 1", fillcolor="#7bbeee"] ;
786 -> 787 ;
788 [label="first_degree_history <= 0.5\ngini = 0.5\nsamples = 2\nvalue = [1, 1]\nclass = 0", fillcolor="#ffffff"] ;
787 -> 788 ;
789 [label="gini = 0.0\nsamples = 1\nvalue = [1, 0]\nclass = 0", fillcolor="#e58139"] ;
788 -> 789 ;
790 [label="gini = 0.0\nsamples = 1\nvalue = [0, 1]\nclass = 1", fillcolor="#399de5"] ;
788 -> 790 ;
791 [label="gini = 0.0\nsamples = 2\nvalue = [0, 2]\nclass = 1", fillcolor="#399de5"] ;
787 -> 791 ;
792 [label="gini = 0.0\nsamples = 11\nvalue = [0, 11]\nclass = 1", fillcolor="#399de5"] ;
786 -> 792 ;
793 [label="rd_thrpy <= 0.5\ngini = 0.5\nsamples = 4\nvalue = [2, 2]\nclass = 0", fillcolor="#ffffff"] ;
783 -> 793 ;
794 [label="gini = 0.0\nsamples = 2\nvalue = [0, 2]\nclass = 1", fillcolor="#399de5"] ;
793 -> 794 ;
795 [label="gini = 0.0\nsamples = 2\nvalue = [2, 0]\nclass = 0", fillcolor="#e58139"] ;
793 -> 795 ;
796 [label="gleason_grade <= 1.5\ngini = 0.498\nsamples = 36\nvalue = [17, 19]\nclass = 1", fillcolor="#eaf5fc"] ;
782 -> 796 ;
797 [label="cry_thrpy <= 0.5\ngini = 0.494\nsamples = 27\nvalue = [15, 12]\nclass = 0", fillcolor="#fae6d7"] ;
796 -> 797 ;
798 [label="rad_rem <= 0.5\ngini = 0.465\nsamples = 19\nvalue = [12, 7]\nclass = 0", fillcolor="#f4caac"] ;
797 -> 798 ;
799 [label="rd_thrpy <= 0.5\ngini = 0.497\nsamples = 13\nvalue = [7, 6]\nclass = 0", fillcolor="#fbede3"] ;
798 -> 799 ;
800 [label="tumor_diagnosis <= 34.5\ngini = 0.444\nsamples = 6\nvalue = [2, 4]\nclass = 1", fillcolor="#9ccef2"] ;
799 -> 800 ;
801 [label="stage <= 2.5\ngini = 0.5\nsamples = 4\nvalue = [2, 2]\nclass = 0", fillcolor="#ffffff"] ;
800 -> 801 ;
802 [label="gini = 0.444\nsamples = 3\nvalue = [2, 1]\nclass = 0", fillcolor="#f2c09c"] ;
801 -> 802 ;
803 [label="gini = 0.0\nsamples = 1\nvalue = [0, 1]\nclass = 1", fillcolor="#399de5"] ;
801 -> 803 ;
804 [label="gini = 0.0\nsamples = 2\nvalue = [0, 2]\nclass = 1", fillcolor="#399de5"] ;
800 -> 804 ;
805 [label="chm_thrpy <= 0.5\ngini = 0.408\nsamples = 7\nvalue = [5, 2]\nclass = 0", fillcolor="#efb388"] ;
799 -> 805 ;
806 [label="race <= 3.0\ngini = 0.5\nsamples = 4\nvalue = [2, 2]\nclass = 0", fillcolor="#ffffff"] ;
805 -> 806 ;
807 [label="tumor_diagnosis <= 34.0\ngini = 0.444\nsamples = 3\nvalue = [2, 1]\nclass = 0", fillcolor="#f2c09c"] ;
806 -> 807 ;
808 [label="gini = 0.0\nsamples = 1\nvalue = [0, 1]\nclass = 1", fillcolor="#399de5"] ;
807 -> 808 ;
809 [label="gini = 0.0\nsamples = 2\nvalue = [2, 0]\nclass = 0", fillcolor="#e58139"] ;
807 -> 809 ;
810 [label="gini = 0.0\nsamples = 1\nvalue = [0, 1]\nclass = 1", fillcolor="#399de5"] ;
806 -> 810 ;
811 [label="gini = 0.0\nsamples = 3\nvalue = [3, 0]\nclass = 0", fillcolor="#e58139"] ;
805 -> 811 ;
812 [label="tumor_diagnosis <= 35.0\ngini = 0.278\nsamples = 6\nvalue = [5, 1]\nclass = 0", fillcolor="#ea9a61"] ;
798 -> 812 ;
813 [label="chm_thrpy <= 0.5\ngini = 0.444\nsamples = 3\nvalue = [2, 1]\nclass = 0", fillcolor="#f2c09c"] ;
812 -> 813 ;
814 [label="gini = 0.0\nsamples = 1\nvalue = [1, 0]\nclass = 0", fillcolor="#e58139"] ;
813 -> 814 ;
815 [label="race <= 3.0\ngini = 0.5\nsamples = 2\nvalue = [1, 1]\nclass = 0", fillcolor="#ffffff"] ;
813 -> 815 ;
816 [label="gini = 0.0\nsamples = 1\nvalue = [1, 0]\nclass = 0", fillcolor="#e58139"] ;
815 -> 816 ;
817 [label="gini = 0.0\nsamples = 1\nvalue = [0, 1]\nclass = 1", fillcolor="#399de5"] ;
815 -> 817 ;
818 [label="gini = 0.0\nsamples = 3\nvalue = [3, 0]\nclass = 0", fillcolor="#e58139"] ;
812 -> 818 ;
819 [label="chm_thrpy <= 0.5\ngini = 0.469\nsamples = 8\nvalue = [3, 5]\nclass = 1", fillcolor="#b0d8f5"] ;
797 -> 819 ;
820 [label="rad_rem <= 0.5\ngini = 0.48\nsamples = 5\nvalue = [3, 2]\nclass = 0", fillcolor="#f6d5bd"] ;
819 -> 820 ;
821 [label="gini = 0.0\nsamples = 2\nvalue = [2, 0]\nclass = 0", fillcolor="#e58139"] ;
820 -> 821 ;
822 [label="tumor_diagnosis <= 34.5\ngini = 0.444\nsamples = 3\nvalue = [1, 2]\nclass = 1", fillcolor="#9ccef2"] ;
820 -> 822 ;
823 [label="gini = 0.0\nsamples = 2\nvalue = [0, 2]\nclass = 1", fillcolor="#399de5"] ;
822 -> 823 ;
824 [label="gini = 0.0\nsamples = 1\nvalue = [1, 0]\nclass = 0", fillcolor="#e58139"] ;
822 -> 824 ;
825 [label="gini = 0.0\nsamples = 3\nvalue = [0, 3]\nclass = 1", fillcolor="#399de5"] ;
819 -> 825 ;
826 [label="first_degree_history <= 0.5\ngini = 0.346\nsamples = 9\nvalue = [2, 7]\nclass = 1", fillcolor="#72b9ec"] ;
796 -> 826 ;
827 [label="rad_rem <= 0.5\ngini = 0.219\nsamples = 8\nvalue = [1, 7]\nclass = 1", fillcolor="#55abe9"] ;
826 -> 827 ;
828 [label="gini = 0.0\nsamples = 6\nvalue = [0, 6]\nclass = 1", fillcolor="#399de5"] ;
827 -> 828 ;
829 [label="stage <= 2.5\ngini = 0.5\nsamples = 2\nvalue = [1, 1]\nclass = 0", fillcolor="#ffffff"] ;
827 -> 829 ;
830 [label="gini = 0.0\nsamples = 1\nvalue = [0, 1]\nclass = 1", fillcolor="#399de5"] ;
829 -> 830 ;
831 [label="gini = 0.0\nsamples = 1\nvalue = [1, 0]\nclass = 0", fillcolor="#e58139"] ;
829 -> 831 ;
832 [label="gini = 0.0\nsamples = 1\nvalue = [1, 0]\nclass = 0", fillcolor="#e58139"] ;
826 -> 832 ;
833 [label="tumor_diagnosis <= 44.5\ngini = 0.345\nsamples = 226\nvalue = [50, 176]\nclass = 1", fillcolor="#71b9ec"] ;
633 -> 833 ;
834 [label="race <= 2.5\ngini = 0.294\nsamples = 145\nvalue = [26, 119]\nclass = 1", fillcolor="#64b2eb"] ;
833 -> 834 ;
835 [label="stage <= 2.5\ngini = 0.461\nsamples = 25\nvalue = [9, 16]\nclass = 1", fillcolor="#a8d4f4"] ;
834 -> 835 ;
836 [label="rad_rem <= 0.5\ngini = 0.332\nsamples = 19\nvalue = [4, 15]\nclass = 1", fillcolor="#6eb7ec"] ;
835 -> 836 ;
837 [label="cry_thrpy <= 0.5\ngini = 0.231\nsamples = 15\nvalue = [2, 13]\nclass = 1", fillcolor="#57ace9"] ;
836 -> 837 ;
838 [label="gleason_grade <= 1.5\ngini = 0.444\nsamples = 6\nvalue = [2, 4]\nclass = 1", fillcolor="#9ccef2"] ;
837 -> 838 ;
839 [label="tumor_diagnosis <= 39.0\ngini = 0.32\nsamples = 5\nvalue = [1, 4]\nclass = 1", fillcolor="#6ab6ec"] ;
838 -> 839 ;
840 [label="rd_thrpy <= 0.5\ngini = 0.5\nsamples = 2\nvalue = [1, 1]\nclass = 0", fillcolor="#ffffff"] ;
839 -> 840 ;
841 [label="gini = 0.0\nsamples = 1\nvalue = [1, 0]\nclass = 0", fillcolor="#e58139"] ;
840 -> 841 ;
842 [label="gini = 0.0\nsamples = 1\nvalue = [0, 1]\nclass = 1", fillcolor="#399de5"] ;
840 -> 842 ;
843 [label="gini = 0.0\nsamples = 3\nvalue = [0, 3]\nclass = 1", fillcolor="#399de5"] ;
839 -> 843 ;
844 [label="gini = 0.0\nsamples = 1\nvalue = [1, 0]\nclass = 0", fillcolor="#e58139"] ;
838 -> 844 ;
845 [label="gini = 0.0\nsamples = 9\nvalue = [0, 9]\nclass = 1", fillcolor="#399de5"] ;
837 -> 845 ;
846 [label="stage <= 1.5\ngini = 0.5\nsamples = 4\nvalue = [2, 2]\nclass = 0", fillcolor="#ffffff"] ;
836 -> 846 ;
847 [label="gini = 0.0\nsamples = 1\nvalue = [1, 0]\nclass = 0", fillcolor="#e58139"] ;
846 -> 847 ;
848 [label="brch_thrpy <= 0.5\ngini = 0.444\nsamples = 3\nvalue = [1, 2]\nclass = 1", fillcolor="#9ccef2"] ;
846 -> 848 ;
849 [label="gini = 0.0\nsamples = 1\nvalue = [1, 0]\nclass = 0", fillcolor="#e58139"] ;
848 -> 849 ;
850 [label="gini = 0.0\nsamples = 2\nvalue = [0, 2]\nclass = 1", fillcolor="#399de5"] ;
848 -> 850 ;
851 [label="gleason_grade <= 1.5\ngini = 0.278\nsamples = 6\nvalue = [5, 1]\nclass = 0", fillcolor="#ea9a61"] ;
835 -> 851 ;
852 [label="gini = 0.0\nsamples = 5\nvalue = [5, 0]\nclass = 0", fillcolor="#e58139"] ;
851 -> 852 ;
853 [label="gini = 0.0\nsamples = 1\nvalue = [0, 1]\nclass = 1", fillcolor="#399de5"] ;
851 -> 853 ;
854 [label="tumor_diagnosis <= 40.5\ngini = 0.243\nsamples = 120\nvalue = [17, 103]\nclass = 1", fillcolor="#5aade9"] ;
834 -> 854 ;
855 [label="brch_thrpy <= 0.5\ngini = 0.328\nsamples = 58\nvalue = [12, 46]\nclass = 1", fillcolor="#6db7ec"] ;
854 -> 855 ;
856 [label="stage <= 2.5\ngini = 0.444\nsamples = 24\nvalue = [8, 16]\nclass = 1", fillcolor="#9ccef2"] ;
855 -> 856 ;
857 [label="race <= 3.5\ngini = 0.488\nsamples = 19\nvalue = [8, 11]\nclass = 1", fillcolor="#c9e4f8"] ;
856 -> 857 ;
858 [label="gini = 0.0\nsamples = 4\nvalue = [0, 4]\nclass = 1", fillcolor="#399de5"] ;
857 -> 858 ;
859 [label="smoker <= -0.5\ngini = 0.498\nsamples = 15\nvalue = [8, 7]\nclass = 0", fillcolor="#fcefe6"] ;
857 -> 859 ;
860 [label="gini = 0.0\nsamples = 3\nvalue = [0, 3]\nclass = 1", fillcolor="#399de5"] ;
859 -> 860 ;
861 [label="chm_thrpy <= 0.5\ngini = 0.444\nsamples = 12\nvalue = [8, 4]\nclass = 0", fillcolor="#f2c09c"] ;
859 -> 861 ;
862 [label="age_group <= 3.5\ngini = 0.245\nsamples = 7\nvalue = [6, 1]\nclass = 0", fillcolor="#e9965a"] ;
861 -> 862 ;
863 [label="stage <= 1.5\ngini = 0.5\nsamples = 2\nvalue = [1, 1]\nclass = 0", fillcolor="#ffffff"] ;
862 -> 863 ;
864 [label="gini = 0.0\nsamples = 1\nvalue = [0, 1]\nclass = 1", fillcolor="#399de5"] ;
863 -> 864 ;
865 [label="gini = 0.0\nsamples = 1\nvalue = [1, 0]\nclass = 0", fillcolor="#e58139"] ;
863 -> 865 ;
866 [label="gini = 0.0\nsamples = 5\nvalue = [5, 0]\nclass = 0", fillcolor="#e58139"] ;
862 -> 866 ;
867 [label="rd_thrpy <= 0.5\ngini = 0.48\nsamples = 5\nvalue = [2, 3]\nclass = 1", fillcolor="#bddef6"] ;
861 -> 867 ;
868 [label="gleason_grade <= 1.5\ngini = 0.444\nsamples = 3\nvalue = [2, 1]\nclass = 0", fillcolor="#f2c09c"] ;
867 -> 868 ;
869 [label="gini = 0.5\nsamples = 2\nvalue = [1, 1]\nclass = 0", fillcolor="#ffffff"] ;
868 -> 869 ;
870 [label="gini = 0.0\nsamples = 1\nvalue = [1, 0]\nclass = 0", fillcolor="#e58139"] ;
868 -> 870 ;
871 [label="gini = 0.0\nsamples = 2\nvalue = [0, 2]\nclass = 1", fillcolor="#399de5"] ;
867 -> 871 ;
872 [label="gini = 0.0\nsamples = 5\nvalue = [0, 5]\nclass = 1", fillcolor="#399de5"] ;
856 -> 872 ;
873 [label="stage <= 2.5\ngini = 0.208\nsamples = 34\nvalue = [4, 30]\nclass = 1", fillcolor="#53aae8"] ;
855 -> 873 ;
874 [label="race <= 3.5\ngini = 0.128\nsamples = 29\nvalue = [2, 27]\nclass = 1", fillcolor="#48a4e7"] ;
873 -> 874 ;
875 [label="age_group <= 3.5\ngini = 0.444\nsamples = 3\nvalue = [1, 2]\nclass = 1", fillcolor="#9ccef2"] ;
874 -> 875 ;
876 [label="gini = 0.0\nsamples = 1\nvalue = [1, 0]\nclass = 0", fillcolor="#e58139"] ;
875 -> 876 ;
877 [label="gini = 0.0\nsamples = 2\nvalue = [0, 2]\nclass = 1", fillcolor="#399de5"] ;
875 -> 877 ;
878 [label="tumor_diagnosis <= 39.5\ngini = 0.074\nsamples = 26\nvalue = [1, 25]\nclass = 1", fillcolor="#41a1e6"] ;
874 -> 878 ;
879 [label="gini = 0.0\nsamples = 16\nvalue = [0, 16]\nclass = 1", fillcolor="#399de5"] ;
878 -> 879 ;
880 [label="age_group <= 3.5\ngini = 0.18\nsamples = 10\nvalue = [1, 9]\nclass = 1", fillcolor="#4fa8e8"] ;
878 -> 880 ;
881 [label="gini = 0.0\nsamples = 5\nvalue = [0, 5]\nclass = 1", fillcolor="#399de5"] ;
880 -> 881 ;
882 [label="cry_thrpy <= 0.5\ngini = 0.32\nsamples = 5\nvalue = [1, 4]\nclass = 1", fillcolor="#6ab6ec"] ;
880 -> 882 ;
883 [label="gleason_grade <= 1.5\ngini = 0.444\nsamples = 3\nvalue = [1, 2]\nclass = 1", fillcolor="#9ccef2"] ;
882 -> 883 ;
884 [label="gini = 0.0\nsamples = 1\nvalue = [1, 0]\nclass = 0", fillcolor="#e58139"] ;
883 -> 884 ;
885 [label="gini = 0.0\nsamples = 2\nvalue = [0, 2]\nclass = 1", fillcolor="#399de5"] ;
883 -> 885 ;
886 [label="gini = 0.0\nsamples = 2\nvalue = [0, 2]\nclass = 1", fillcolor="#399de5"] ;
882 -> 886 ;
887 [label="previous_cancer <= -0.5\ngini = 0.48\nsamples = 5\nvalue = [2, 3]\nclass = 1", fillcolor="#bddef6"] ;
873 -> 887 ;
888 [label="gini = 0.0\nsamples = 1\nvalue = [1, 0]\nclass = 0", fillcolor="#e58139"] ;
887 -> 888 ;
